{
  "neuralNetwork": {
    "numInputs": 11,
    "hiddenLayers": [
      64,
      64,
      64,
      64
    ],
    "numOutputs": 1,
    "hiddenWeights": [
      [
        [
          -0.45904018366789534,
          -0.1955940285750652,
          -0.2682618035493064,
          -0.5412269090846682,
          -0.3709600746228869,
          0.34361500727232586,
          -0.7982582211592615,
          0.023881106997992348,
          -0.37623613509698495,
          0.14015225850300042,
          0.28972490548988483
        ],
        [
          -0.37746966331629844,
          -0.8162781389635934,
          0.10533073464502589,
          -0.5689054906157728,
          -0.1556555848442303,
          -0.29452223589380994,
          0.09240138639517245,
          0.7332919645713619,
          -0.9285753455001363,
          0.2301155169396174,
          -0.4499578506785311
        ],
        [
          0.7584501995398588,
          -0.3589992235564809,
          -0.15604760922125227,
          -0.44202825668583956,
          0.7523735203948241,
          -0.48299910902506904,
          1.0860779130594906,
          0.45170047397977003,
          0.729857742357274,
          0.9694788652079227,
          0.06742351075756584
        ],
        [
          -0.16493675849001646,
          0.5335505736422567,
          0.060232673375973614,
          0.6839832601890722,
          -0.3052199819128464,
          -1.0310306131156453,
          -0.006832905712849888,
          -0.07362054370368662,
          0.041055520599583145,
          0.16969385201970158,
          0.09856695005145902
        ],
        [
          -0.010989227203613236,
          1.1739440572129525,
          0.2677619797045538,
          0.5567055403245845,
          -0.2220354223469384,
          -0.05099301933938702,
          -1.0374423618797548,
          0.024388772650996364,
          0.4085686774211221,
          -0.6046683249093653,
          -0.5183853480614243
        ],
        [
          0.05545168109614457,
          -0.48141801902077386,
          -0.36514715968693673,
          0.4890008305761242,
          -0.29126566703313617,
          0.09172414786889545,
          -0.6444459850334057,
          0.05952097037487635,
          -0.3214789711317955,
          -0.23864234135930082,
          0.08691420591734976
        ],
        [
          1.025781263501423,
          0.14516684250440606,
          0.7042073449719581,
          0.6663436654630533,
          0.3559925784399161,
          0.5599444264764935,
          -1.1494995232498404,
          -0.6835240640368621,
          0.11468433997712253,
          -0.8439997906766421,
          0.6899485243933059
        ],
        [
          -0.3452164914509793,
          -0.43511623496284274,
          0.8166764868496336,
          -0.00788793089204085,
          -1.341011194914737,
          0.32218599613750004,
          -0.19973244088669911,
          -0.10643812911981512,
          0.588587515108686,
          -0.259010844334877,
          0.33870241574466714
        ],
        [
          0.4442262773541691,
          0.01909982778670688,
          -0.46600134962410394,
          0.7702065341857022,
          1.658140299826945,
          -0.5009958568135021,
          -1.2882943819046373,
          0.21240804434579383,
          -0.11165916268055863,
          -0.9215797902265753,
          0.43802363000183897
        ],
        [
          -0.20671113699794183,
          0.2800762558715255,
          1.1237144797758505,
          0.5530090463876945,
          -0.07099828508617419,
          -0.6505267472260972,
          -0.44674916885424537,
          0.049015839478587966,
          -0.17781476668130355,
          0.08519672222631483,
          0.09924780648592939
        ],
        [
          0.9905677041407235,
          -0.5971855995036361,
          -0.2453843482050228,
          -0.26684373018184904,
          0.31782385456330525,
          -0.5937795464637697,
          0.42056341029932226,
          0.0755464368046994,
          -0.16301909961883124,
          -0.12009336694620895,
          0.16327955676138292
        ],
        [
          -0.10703480537706228,
          -0.15412105221665434,
          -1.0626954717119421,
          0.07686500170830919,
          0.25006883808041863,
          1.3031318045482805,
          0.5720371976281206,
          -0.31958484937572396,
          0.6504562371373401,
          0.934357635729939,
          0.0005710046228542427
        ],
        [
          0.6583765352485099,
          0.6069586111076734,
          0.013134878224532487,
          -1.0227327107176745,
          -0.37052078541898165,
          -0.2509562028412636,
          -0.14586427412165473,
          1.153400751158637,
          -0.9195920876610291,
          -0.17862468605930243,
          0.6082993463456811
        ],
        [
          0.2295750612448457,
          0.8264468469744772,
          0.252062898873685,
          -0.3933596617544998,
          -0.7886017971108179,
          -0.011587896338346159,
          0.1355124601825297,
          0.22446847568283523,
          -0.2722882047036786,
          -1.2269417383298895,
          0.4672098338153023
        ],
        [
          -0.13518869104145448,
          -0.1412530327025041,
          -0.39447798492381225,
          -0.6903092408159468,
          -0.8698249693114697,
          -0.2609980791443615,
          0.2915751213979081,
          -0.054313482273170816,
          0.5126307288055769,
          -0.21317562878557164,
          0.21518640945445788
        ],
        [
          0.8724083861335452,
          0.877385399456572,
          -0.4425066977914354,
          0.29913222047356697,
          -0.1889607042899251,
          0.2612820978937474,
          -0.21229718285946145,
          -0.8174802196086502,
          0.39724714119551185,
          0.876722228804269,
          -0.16149604047836594
        ],
        [
          -0.3270446329698705,
          -0.15666684857930432,
          -0.09479793567316461,
          0.4666360550254526,
          -0.06327024742236423,
          0.612748374106937,
          -0.1389659212255932,
          0.6277585602427326,
          0.3104228199371607,
          0.6314663476739222,
          -0.7267427945999395
        ],
        [
          0.1647496309751665,
          0.10938303432379154,
          -0.24922919978278318,
          0.1547815613572153,
          -0.4084637133582058,
          0.20756070313636038,
          -0.34278445977116656,
          -0.29431854232872773,
          -0.46750829204765987,
          -0.323799000298006,
          -0.36995028385133144
        ],
        [
          0.35264304913596944,
          -0.16223104042786465,
          -0.41427479834774505,
          -0.135348347929407,
          -0.3527600588005469,
          -0.24845585156395802,
          0.3852854852320289,
          0.9749976814705735,
          0.297542289973934,
          -0.390573923869856,
          -0.4606946830859373
        ],
        [
          0.11956613856910457,
          -0.7881427100771145,
          1.29586284012814,
          0.17674831454632658,
          -0.5945600585465755,
          0.011678996397321605,
          -0.5234518944407393,
          -0.2003257741536744,
          -0.12408245803805559,
          0.49968408490915184,
          0.2808614894854141
        ],
        [
          -0.40042607357318977,
          0.015736076537806874,
          0.13343000556619206,
          -0.10886384536200205,
          0.29428390077060373,
          -0.4279971589081128,
          0.46357858083428244,
          0.18502891657144221,
          -0.6074001162660353,
          0.10099908198581649,
          -0.3599631745398441
        ],
        [
          -0.9240477589308562,
          0.7988279496513974,
          -0.602321679398293,
          -0.608894120697635,
          0.37216527298033425,
          -0.020614344402849455,
          -0.28549642582315654,
          -0.38311128307555964,
          -0.3516431817890399,
          0.50362786770277,
          0.5507964935988531
        ],
        [
          -0.3886356729898099,
          0.083280650153529,
          0.004935046870983471,
          0.386743782359391,
          -0.66120451234738,
          0.45029817921519555,
          0.5325207594084435,
          0.5511149034643085,
          0.6027672935254029,
          -0.9088912225992236,
          -0.35277549671751723
        ],
        [
          0.38051255256307615,
          0.5035443991842585,
          0.9403892720624912,
          -1.1902208037911446,
          -0.1449668986491078,
          0.35335990869668416,
          -0.047896803171476175,
          -0.37562725231729865,
          -0.5745909385108514,
          0.04139119369146652,
          0.2587168325202739
        ],
        [
          0.02017838024104898,
          0.3001986776907917,
          0.65864121266222,
          0.06603015351995002,
          0.5729825335120526,
          0.1328619382504233,
          -0.5806904422863877,
          -0.6028213747041528,
          0.6794675131479496,
          0.16348143701190976,
          -0.6804916530037032
        ],
        [
          0.14448935369655505,
          -0.3859888361728213,
          -0.15851573263981839,
          0.20690056316423572,
          0.5005695628565031,
          0.351818385190136,
          0.3958529604620631,
          0.014177814316549391,
          0.629051536245908,
          -0.0760174454505169,
          1.0734523017127686
        ],
        [
          0.37943203467291026,
          1.3702193197652237,
          0.3445164467479229,
          0.3195472099662556,
          0.6354078252000035,
          0.4475008319373386,
          0.365818322232972,
          -0.42149971838035627,
          -0.139504122525182,
          0.11120407355701675,
          -0.2489100890913412
        ],
        [
          0.3190844793404791,
          -0.32251928165684335,
          -0.6791118358241405,
          -0.2027708108757661,
          -0.46675640338367536,
          0.9266354399829564,
          -0.6670299164360601,
          0.47285244172436397,
          -0.4650760209669921,
          0.9262112151679263,
          0.3969514462486791
        ],
        [
          0.13812734878852623,
          -0.680866041510913,
          0.5814595468027697,
          0.02098647406148912,
          0.7147362603446171,
          0.21357045538323535,
          0.3290584251533211,
          0.26803722108054523,
          0.18090038342022552,
          0.3448557504808937,
          -0.993964033636013
        ],
        [
          0.5045106587716494,
          -0.7467874794431192,
          0.21555620666183384,
          0.5046192374782107,
          -0.8589193058299326,
          -0.4670889184273782,
          -0.3798414134227061,
          0.15778436284782113,
          -0.09879031926509997,
          -0.268257411117098,
          -0.11978351325433112
        ],
        [
          -0.7391218296284814,
          0.12934912530479664,
          -0.18304237439199392,
          0.447533395865972,
          -0.015667661681077263,
          -0.6877116511052336,
          0.11221573747734596,
          0.842834294054386,
          -0.681195623360037,
          -0.7064537635661897,
          0.12994156478968474
        ],
        [
          -0.8430827582973488,
          -0.2677481311689234,
          -0.3889408880095506,
          -0.0775661309630525,
          0.7168352785632921,
          -0.5992396134678782,
          -0.520924455556933,
          -0.1090507080680854,
          -0.03977936373285235,
          0.5389929731978588,
          0.12244373316330265
        ],
        [
          -0.5757221568897768,
          -0.20203159574771845,
          -0.14781484205003192,
          0.17550539102622256,
          -0.2369726162586963,
          -0.4499504106238436,
          -0.30033335964693036,
          -0.08589888323974473,
          -0.5716128740312919,
          0.04973392679704239,
          0.02156215974546842
        ],
        [
          -0.09022392569354815,
          -0.7274445934266451,
          -0.6418407849678083,
          0.5370867053555272,
          -0.415009281720658,
          0.011628388803599517,
          -0.1972626199221467,
          -0.2532731897418383,
          0.3071294496485868,
          0.6347264517833464,
          0.6471503210267047
        ],
        [
          -0.5972508076152461,
          -0.2366899427268407,
          -0.016580674687028753,
          -0.5381171311767615,
          -0.2801564380347797,
          -0.49526616387765704,
          0.6666796743405825,
          0.13499286828193524,
          -0.08749997913730474,
          0.9003937430846437,
          -0.19896837691913982
        ],
        [
          0.05265585134144117,
          0.10952727367920213,
          0.2621084534578706,
          0.10263602401854682,
          -0.06678372132268248,
          -0.6376627493882142,
          -0.4590468747668053,
          0.5173164198542771,
          -0.1910896014558855,
          0.18110403396906644,
          0.5318032848162628
        ],
        [
          0.3338667652515195,
          0.15862987520482041,
          -0.10615461892654678,
          -0.051828775442002116,
          -0.7303801607731237,
          -0.27881003465066406,
          -1.0806682080839185,
          0.20347082859299345,
          0.6277643921256397,
          0.618543179697622,
          -0.3694985702492522
        ],
        [
          0.39025883879068024,
          -0.6044617161264283,
          -0.4485842569314386,
          -0.47547033945794004,
          0.8711780099003705,
          0.5325616026711688,
          -0.7488798603660277,
          0.32186069311504834,
          0.3236375072463116,
          -0.260629908177797,
          0.002270381372831387
        ],
        [
          0.15010961293049357,
          -0.23366089917724106,
          0.7598598898620373,
          0.8070126644354253,
          0.7619107567611146,
          0.6195981167734432,
          -0.083244127932191,
          -0.4275109663689641,
          -0.8607972102439557,
          -0.8503340314326318,
          0.6696463803107481
        ],
        [
          0.04625761098176178,
          -0.16688255075538444,
          0.46142313171227267,
          -0.3794045904466821,
          0.014397470179614756,
          -0.1628739741115781,
          0.0479408935521342,
          -0.6581468626712326,
          0.052306051553168566,
          0.06369790045593707,
          -0.34466251291481587
        ],
        [
          -0.578101713930827,
          0.5862005058242968,
          0.41163716878359485,
          1.3698951796725705,
          -0.38393748541820266,
          -0.044741837684261154,
          0.2752738907892931,
          -0.47470059619109,
          -0.4728331572211203,
          2.1594492571698014,
          -0.5844321625644547
        ],
        [
          0.9093494690789061,
          -0.3356925398849661,
          0.34870407323756464,
          -0.26365910120780267,
          -0.5731384647294159,
          0.5134200252729479,
          0.0880173637689729,
          0.15141360417471805,
          -1.210188622621913,
          -0.09855917146300924,
          -0.3166684770059354
        ],
        [
          0.15169817792267096,
          0.4133596736399694,
          0.22173929654297267,
          0.7241393838629391,
          0.7076596668207928,
          -1.014574341493385,
          -0.19690065980497526,
          0.3841207821519883,
          0.3170230836899412,
          -0.689790193550786,
          -0.39353281683946223
        ],
        [
          0.0161934562191891,
          0.014526630036377261,
          0.057619159733642844,
          -0.281602659274384,
          -0.23008261093976268,
          0.30293515014309363,
          0.3780270265047565,
          -0.11825558656307428,
          0.07897046493686016,
          -0.448486721328194,
          -0.42124058611304854
        ],
        [
          0.08219248509082182,
          0.007435454183493606,
          1.1385686254958403,
          0.18585949485450737,
          -0.31424983067950396,
          0.2458254078092242,
          0.16314391780522097,
          -0.4787781870577591,
          0.049664457305608437,
          -0.49234761218519707,
          0.08037406967203699
        ],
        [
          0.609916020012178,
          0.04159488182838741,
          0.5827959941582773,
          -0.35109345452712176,
          -0.21688575490976636,
          0.09032607383914032,
          -0.53151936854374,
          0.33919606968356114,
          0.09647462170298819,
          -0.9778230453645254,
          0.057066295997712915
        ],
        [
          -0.4899830555556688,
          -0.10804170738406098,
          0.044257648995028535,
          0.5950034600921403,
          0.3818020239727172,
          0.1531677622166359,
          0.3564301285015954,
          0.3348034253837743,
          0.21355824035460672,
          0.0036151876275574307,
          0.5479686736834177
        ],
        [
          1.5343347012888318,
          0.16190927563496937,
          -0.09812284461253176,
          -0.705355771388606,
          0.13929134115896782,
          -0.4548184608093901,
          -0.9380023350661745,
          -0.3470105481798173,
          -0.8098425200548375,
          0.09905084846627321,
          -0.4987889067193065
        ],
        [
          0.8823190847442026,
          -0.117122851191436,
          -0.8623090178613232,
          -0.8817593926040537,
          0.30704716202597626,
          0.43695662073164254,
          0.05792059279177148,
          0.4983301202167506,
          -0.4813675497662187,
          -0.3123945390044437,
          -0.14151980765181005
        ],
        [
          0.6119078553111069,
          -1.139960283185656,
          0.13920967125571887,
          -0.44968823670922214,
          -0.3853130917841728,
          -0.0992164885711678,
          -0.5993048862443263,
          0.1130367212108471,
          -0.4236640385977158,
          -0.16399373892136548,
          -0.5926742046145611
        ],
        [
          -0.2122419052962444,
          -0.6507119994157107,
          -0.7598950915691313,
          -0.08549742614530265,
          -0.5674307141491481,
          1.226556144354636,
          -0.00021943574889709725,
          -0.6570968435462787,
          0.03345401324634296,
          -0.02803398555523329,
          0.45504811918590743
        ],
        [
          0.5073796800887101,
          -0.47645453933749826,
          -0.051959556230284115,
          0.38027591510715086,
          -0.8966643793505763,
          -0.21753251220387668,
          -0.16108177355762462,
          0.06386853331663635,
          -0.8850877126909351,
          0.2978248115315536,
          -0.06872339253073338
        ],
        [
          0.6756350514517461,
          -0.001150955412171166,
          -0.616394706977384,
          0.08696995094613785,
          -0.3171764091103859,
          -0.4800299066391031,
          -0.055676456754675446,
          0.44207875098107596,
          0.08007515102973664,
          0.06161499528998444,
          0.7431715086086782
        ],
        [
          0.2385646027792477,
          0.48995701873148056,
          -0.057199965087533874,
          -0.0996964090115954,
          -0.2336817563263096,
          -0.6481294274337164,
          -0.14107314805859558,
          -0.6606828343352107,
          0.16640261505167703,
          0.7222364709323162,
          0.8935016316892502
        ],
        [
          -0.5369873197292603,
          0.22271756963482706,
          0.0632694108527167,
          -0.2841144799392701,
          -0.21937119572996217,
          -0.34117464175230316,
          -0.025512812668265498,
          -0.25154994750805737,
          0.1481369004706473,
          -0.3873048234374216,
          -0.47749874483005506
        ],
        [
          0.27579265682527015,
          0.12992299408927374,
          -0.5266531052902912,
          -0.3987616526300353,
          0.13091773638257334,
          0.08792054866331009,
          -0.2820745724178114,
          0.570457759251164,
          -0.8717688579279269,
          -0.010856376821265222,
          0.5962694829438332
        ],
        [
          0.1927914522261935,
          0.5892481586137411,
          -0.06123855352599277,
          -0.11717533689846583,
          0.0485498807134068,
          0.8025130842274812,
          0.18393297489794122,
          1.144300951481836,
          -0.9038666785519861,
          0.07821378275687661,
          0.37776487153142196
        ],
        [
          -0.49929155457477353,
          -0.25192233678665504,
          0.16553157784556216,
          0.7789604098303962,
          -0.5840352832299335,
          -0.21300066611490912,
          -0.5807328715521057,
          0.8247760623783578,
          -0.9503656576866453,
          0.7798776364887771,
          0.17205739688569394
        ],
        [
          0.5727046497366666,
          0.17963580906570875,
          -0.6701647358967269,
          -0.7522106635849962,
          0.42313832099982784,
          0.9320949366377335,
          1.1298982458887616,
          -0.7122808282017168,
          -0.1160953002218419,
          -0.03514809676605662,
          -0.12671532484977327
        ],
        [
          -0.45502852274886657,
          -0.6615096471691069,
          -0.6633674576643258,
          0.1967379329355898,
          0.30316281156123137,
          -0.05439519016021553,
          -0.11088654179286102,
          -0.2779532751534503,
          0.0735792358339041,
          -0.20412407859519685,
          0.11258415929178714
        ],
        [
          -0.9074799066772377,
          0.8578908201495276,
          -1.2012038055967884,
          -0.08089209027802813,
          -0.2679428239431102,
          0.7146895801197608,
          0.26400058521322867,
          -0.2277158563258284,
          1.0804854163575364,
          -1.0818538599552676,
          0.5665792672225881
        ],
        [
          -0.1985258003180527,
          -0.5980655495272633,
          0.10814540473936594,
          -0.6257720015870002,
          0.2840571159371486,
          -0.3604779530577619,
          0.28125233062620175,
          0.2149485360995249,
          -0.06259032436817427,
          -0.5968961415405488,
          0.2994993442191644
        ],
        [
          -1.0132606316717057,
          -0.41198949714328625,
          -0.07850275888826178,
          0.1016406979028063,
          -0.10033698656990475,
          -0.27276280493999344,
          -0.25874601552384935,
          0.2039272050882512,
          -0.25822903623987653,
          0.26129855980008987,
          0.35798350985025185
        ],
        [
          1.0318577189629567,
          -0.8096259562144987,
          -0.08927203030775879,
          0.502176681336517,
          0.07366131187790897,
          0.2628216141706859,
          0.4444137181585516,
          0.293811467375982,
          -0.5352912791114264,
          -0.5815549629158626,
          -0.19078976445794746
        ]
      ],
      [
        [
          -0.18613984509777146,
          0.05272901790388907,
          0.3124514164602973,
          -0.14018996032321895,
          0.03429605518885436,
          0.007318136914940235,
          0.053640798783873525,
          0.16089466014258225,
          0.27775844615244477,
          -0.517147952857589,
          -0.09195402245502408,
          0.3507577948231949,
          0.27255873944508363,
          0.10421994074252895,
          -0.24803297691398313,
          0.060307489973819774,
          -0.11694034616324658,
          0.1329917703726955,
          -0.31187527407195703,
          0.11554350121914987,
          -0.051034718776807916,
          -0.09158163415665925,
          -0.014567896560503009,
          -0.3972619257239105,
          0.08241903988931229,
          0.2779368956854722,
          0.23720742285913102,
          0.2901620179442502,
          -0.12613653831956376,
          -0.057004955870580715,
          0.09612686760029064,
          0.27935326110007463,
          0.06749690106753739,
          0.4060482976056059,
          -0.3171505974686836,
          0.32953366441164533,
          -0.2516520938587768,
          0.1984537557722097,
          0.20326043882216208,
          -0.10215128061255833,
          0.06819582061049849,
          0.20008903358131902,
          -0.45649841480373543,
          -0.03259260165871928,
          -0.18602425248082619,
          -0.0051155581604844175,
          -0.08838858005343925,
          -0.3995071032305796,
          -0.01841808788714474,
          -0.22119676159018514,
          -0.05322753132201167,
          0.02285828565922672,
          0.24237349177950337,
          -0.19172763472818513,
          -0.09520368428565007,
          -0.38488284667789213,
          0.21036874015475351,
          0.34336020747587437,
          -0.06345508957971821,
          -0.013119644998313728,
          0.22794889621474515,
          0.02081967791684687,
          0.04141673157473947,
          0.4114455117384687
        ],
        [
          -0.12342619640710271,
          -0.11501341838976827,
          -0.39895722331984507,
          -0.04196306167930035,
          0.2459774871022469,
          0.017832213912813828,
          -0.12456378017296735,
          0.08167944218474886,
          -0.0268333750758507,
          -0.4165283656044747,
          -0.15504000446977662,
          -0.11473045659849433,
          -0.17817861232824486,
          0.14980231531204488,
          0.2354635499294255,
          0.11934263817993468,
          -0.1239066941425754,
          0.27607177294687013,
          -0.22501896419936773,
          0.10459710036652425,
          0.1630549247803851,
          -0.0696359493787724,
          0.047939757316086,
          0.15157700660240794,
          0.07737644923307194,
          0.00425372211454664,
          0.13903057923773776,
          -0.179405787656829,
          0.08371866296150275,
          -0.09991811080241507,
          -0.2576271411914509,
          -0.0625145871754202,
          0.35161690739510415,
          0.4503678421442161,
          -0.08704877095986692,
          0.11688922297132136,
          -0.1814443285848708,
          0.15562937986090095,
          -0.021109289200020857,
          -0.23631611560074822,
          0.12492926445070031,
          -0.10899982152941512,
          0.16575618290257596,
          -0.2574520733455456,
          0.011849123472569738,
          -0.026385428619134958,
          0.1989113794236715,
          -0.061066665171379896,
          -0.040657719147237766,
          0.03525424997415915,
          0.01233604658931241,
          -0.14956551475585758,
          0.042602916656230394,
          -0.3115515284467637,
          0.34120415694616535,
          0.00029825134363604906,
          0.10755399084070263,
          -0.30301553038870443,
          -0.09635815687796713,
          -0.04890847583523688,
          -0.18715459163040177,
          -0.03779033171396364,
          -0.14803177690869526,
          0.10909207306491184
        ],
        [
          0.007988456443191749,
          -0.02107302138003102,
          -0.3213971131039413,
          0.022539090542364137,
          0.1847097932060922,
          0.0807203295466322,
          -0.26514800885983686,
          -0.15515626249825307,
          0.2124234040036373,
          0.13204214284898166,
          0.0344461145012714,
          -0.06019964625926672,
          0.05557179215479773,
          0.39073295654238566,
          0.06893357691241282,
          -0.05336670466180343,
          -0.3229534597952086,
          -0.10722169087032306,
          0.03898791674028513,
          0.22172933489355204,
          0.3823154723359198,
          -0.18797384392975305,
          -0.3584958247154659,
          -0.04697289029835591,
          0.2664986605985821,
          -0.20529618145449854,
          0.24802173148512605,
          0.12323814440742945,
          0.08168892069023465,
          -0.29692633165546595,
          -0.07966642996639552,
          0.20085108713475566,
          0.1419398846901331,
          -0.08539810824811529,
          -0.0952888335361142,
          0.09360279235507207,
          -0.18913298048249944,
          0.14862554582902474,
          0.023733339272550967,
          0.21121219733979196,
          -0.11895351927011674,
          -0.11368288803695721,
          -0.1980173013330815,
          -0.1677670708212976,
          -0.19760782066111643,
          0.040110576688671504,
          0.08350729524722,
          -0.3484608512368982,
          0.04331535716328131,
          -0.002943896849713599,
          0.1938943016446006,
          0.16512386713762123,
          -0.04005691486187634,
          0.20240843891959553,
          -0.17399041711790605,
          0.23100928896997638,
          -0.23479502852598605,
          0.3863944849958342,
          -0.05075323359119323,
          0.018431236524859333,
          -0.3502591469166147,
          -0.46271319936961236,
          -0.0319378289932821,
          0.2482627439382545
        ],
        [
          -0.012503592935435659,
          -0.10064687989131937,
          -0.07096295710832137,
          -0.17909804189316836,
          0.05280180310411641,
          -0.01273083312879044,
          0.107813429959718,
          0.0758702685694462,
          0.14836364651992653,
          -0.17383388561491875,
          -0.01612152842292412,
          -0.3362572494859244,
          -0.15843221643241487,
          -0.175451223333045,
          -0.27613877213080124,
          -0.4428324813091554,
          -0.009255605999125954,
          -0.1858988786939079,
          -0.022575318747433706,
          -0.09453683307640107,
          -0.014699259512370442,
          0.007279307664667727,
          0.25272375459358976,
          0.12937093821470527,
          0.3144196099172963,
          0.026850126716715772,
          -0.05677711854979227,
          -0.12447666151037473,
          0.07397976601938691,
          -0.059368341146618764,
          -0.16279547207075631,
          -0.18748264181900362,
          -0.13152968601849507,
          0.5412486706068717,
          -0.15690669285766662,
          0.2874715238795013,
          -0.08086220809090111,
          0.02009544679631012,
          0.20300616607570418,
          0.1842379499068362,
          -0.088716364890488,
          -0.23342806490047496,
          0.16116510551460259,
          -0.1818009735596366,
          0.2910843066813997,
          0.09342260905648103,
          0.11303580793345991,
          -0.3277591392002366,
          -0.10159522304169705,
          -0.4202973693315427,
          -0.005583201553045618,
          0.1739020138803894,
          -0.03492390695417836,
          0.19060282384165403,
          -0.11719797616869222,
          -0.06561073338128665,
          -0.3722563107432675,
          0.26335855561745775,
          -0.637531119389955,
          -0.04290890728225461,
          -0.018802465888411588,
          -0.09132752854477275,
          0.052038890292821605,
          0.3428637028707344
        ],
        [
          0.11348282153237049,
          0.0011040018585504524,
          -0.06670533840080188,
          0.2868238834020274,
          0.10995564121819551,
          0.22965816238378062,
          -0.37243168774838425,
          -0.4062972818803116,
          0.12466205922525996,
          0.03840246467582299,
          -0.2056330269659477,
          0.029526354783354466,
          -0.1960465598209438,
          0.14249547510361543,
          -0.03281165549658603,
          -0.10788506044985602,
          -0.15578017876354305,
          -0.22694635423902665,
          -0.0880198359179882,
          -0.1298620390420293,
          0.01976868461472936,
          0.33999400904261745,
          -0.2827688747607169,
          -0.379387807106668,
          0.17647625162901517,
          -0.37137386968935027,
          -0.04929354178063465,
          -0.08900309959273131,
          0.013074847386433134,
          0.040996638108808124,
          -0.08980534186984218,
          -0.17881133104355573,
          0.05973308697561367,
          -0.024296532749534715,
          -0.13765679481007945,
          0.13741450216604054,
          0.17688617819718724,
          -0.24546574996578946,
          0.243670501606379,
          -0.06892451272829786,
          0.42235582744140293,
          -0.23112947828105665,
          0.14125770812774266,
          -0.15439400793075472,
          -0.5208184044782247,
          -0.2355834609339601,
          -0.01333857163557348,
          0.037015285764121046,
          0.06665194901202444,
          -0.054694229558425234,
          0.04106616746483774,
          0.014772263996946436,
          -0.03132594209604731,
          0.06825961168414489,
          -0.1248264092117821,
          -0.04546412451958575,
          -0.06719009601915849,
          0.09668828522608683,
          -0.05758584729147679,
          0.17572508195125275,
          0.19789365256187422,
          -0.007322903975925825,
          0.26007662920142754,
          0.0636451647664439
        ],
        [
          -0.23232979985282756,
          0.21176481486619,
          -0.47507041751544316,
          -0.1212468280830071,
          -0.4942013209832346,
          -0.07846580417870003,
          0.13962336493196897,
          0.3029235581208205,
          -0.07894566402316011,
          0.6139194767349395,
          -0.237426038412439,
          0.1797418304513503,
          -0.2521918143125051,
          -0.05566381547387493,
          -0.14176756387275552,
          -0.25476969688523193,
          0.17504752757139802,
          -0.024377373976906175,
          -0.03970434860796387,
          0.37235013796486727,
          0.36402136532797025,
          0.15687033789721305,
          -0.015705291844077342,
          0.013083245350154874,
          -0.041837962275786095,
          -0.06591602849135325,
          -0.2606061518933987,
          0.38017894289237647,
          -0.14758988127351227,
          -0.16755273942152354,
          0.03420968897756751,
          -0.05115976935450177,
          0.09196895602624576,
          0.2854426767039259,
          -0.06652067469526371,
          -0.05178133071521303,
          0.11025824095686661,
          -0.019077863211702,
          0.1353776905002205,
          -0.20019454442602924,
          -0.042562766903642676,
          -0.04299772974796388,
          -0.4008728144235395,
          -0.004402454903783996,
          0.186303826973422,
          0.2514477397462254,
          0.0019628375796138476,
          -0.1516310519243286,
          -0.12085398692408002,
          -0.02363192033580577,
          0.00016250887364899756,
          0.15800492418796583,
          -0.3499628383190926,
          0.2585579573294519,
          0.1344471610247517,
          0.09953890392561966,
          -0.42148184720202847,
          0.02286681401252507,
          -0.0551476339647593,
          -0.035565479295116234,
          -0.2209659466532806,
          0.11077485411665655,
          0.031203129999610866,
          -0.1055867925506684
        ],
        [
          -0.11593779711774968,
          0.09883075460333815,
          -0.33313194132608953,
          0.12123745887209644,
          0.43144236686880616,
          -0.041833227524798795,
          -0.1514448995561954,
          -0.26315902822629283,
          -0.004315019623646038,
          -0.07559128585771228,
          -0.5720504316472288,
          -0.07013019155463643,
          0.038351977875191956,
          0.47544799401655846,
          -0.05819754190150022,
          0.5116633361168811,
          -0.0996727874855604,
          0.18721413471102633,
          -0.10321654388171513,
          0.07732715631556449,
          0.02952930532649883,
          0.09529198272344794,
          0.19784982979972157,
          -0.08930729719857806,
          0.10568517424472527,
          -0.20579410231117948,
          0.19774172247997657,
          0.20495903895844647,
          -0.27906682076991673,
          -0.12503827775827117,
          0.04004692385298581,
          -0.1602128421372216,
          0.3959148642955884,
          -0.013927958476498055,
          0.19675718210099719,
          0.12891655756553488,
          -0.04389192926854737,
          -0.12349910665949232,
          -0.42524810252273987,
          0.05871903158579398,
          -0.17866298451978638,
          -0.14409901491635788,
          -0.2834085403571719,
          -0.07830148212908677,
          -0.19197587910839622,
          0.032758984286667125,
          -0.029129789498884714,
          -0.0036286989695493445,
          -0.11240774183130105,
          0.016272959018676456,
          -0.24667506789619748,
          -0.08132893927890461,
          -0.05426288798128133,
          -0.169584516119904,
          -0.15025160420661743,
          0.23038274825858013,
          -0.08393162459330707,
          -0.09815000806600066,
          -0.03866226457714875,
          0.06141990952779687,
          0.567937111986025,
          -0.21451489089560521,
          -0.1439172044700542,
          0.37643747622260687
        ],
        [
          -0.031281670163206786,
          0.11514284822270952,
          0.1525476324940179,
          0.08408508657596617,
          -0.1679989014846532,
          0.10765970307577546,
          0.06675705198910895,
          -0.008456731035314372,
          0.01350812098517235,
          -0.14653459336607483,
          0.1187533681504995,
          -0.06658774347016469,
          -0.039146342974120264,
          -0.15623302332252476,
          -0.2231456248526178,
          -0.07681302060432638,
          0.13097455436785127,
          0.19866403308158187,
          -0.1384469765839154,
          -0.04405653118427466,
          0.11791905676497728,
          -0.018118210025122334,
          -0.2505823023178218,
          0.0062902385516547445,
          -0.050898801693540496,
          -0.10107385988952652,
          -0.3271772907549254,
          -0.20454836051235556,
          0.15699875101163782,
          0.023717533091929765,
          -0.15209441227851692,
          0.1292545801686613,
          0.05485768815097778,
          0.15962610713088293,
          -0.11284655173766713,
          -0.11348635270244523,
          -0.1841032700954414,
          -0.09903095486371048,
          0.1398496475060719,
          0.2616522451349785,
          -0.07057623319280491,
          -0.047698637237248834,
          -0.23504815030758053,
          -0.11003684373606022,
          0.054379919189329745,
          -0.1611024073995007,
          0.12410821830461005,
          -0.050068634874718215,
          -0.15878274863044708,
          0.23175766234648446,
          0.12850541375453256,
          -0.07614955915231587,
          0.1386775375315228,
          0.13654329303606558,
          0.11750135310669729,
          0.16517827256173737,
          0.024329738475758686,
          -0.20024844530551675,
          -0.1380954312419789,
          0.2342412338701688,
          0.013380963724141097,
          0.21582511450373942,
          0.10339885210140767,
          -0.09894361786176041
        ],
        [
          -0.19173471528775873,
          -0.11418520582350122,
          0.08233764634304763,
          -0.004592085544427603,
          0.24922277519437502,
          0.1313509482676503,
          -0.2815361149881955,
          0.15140188629177526,
          0.04344879928430747,
          0.06953144064330175,
          0.018076588145786058,
          -0.14912818413317647,
          -0.4362305170611451,
          0.007452051459176105,
          -0.2724336455377593,
          -0.11689766651197912,
          0.009210095213249161,
          -0.18082577492812887,
          0.07470371778885453,
          0.21728061039048904,
          -0.1410988377825423,
          -0.6740631934160599,
          0.4145829391556399,
          -0.3762331454436963,
          0.3724659015129928,
          0.17086265648591245,
          0.1863691936895637,
          -0.4949513621895199,
          -0.1592563513857799,
          -0.20729686762601476,
          -0.3512482190886374,
          -0.0689334218805315,
          0.29515452619342514,
          -0.18665647984824033,
          0.0010265157909043173,
          0.008397530303361886,
          -0.15178570250935547,
          -0.2295210397802899,
          0.574271758506596,
          0.12013864893871255,
          0.2474815787428833,
          0.18074486137123613,
          0.5067329978669788,
          0.06108948141353198,
          0.2771500187828562,
          0.11918697102298044,
          -0.2370301060100007,
          -0.25544207112602374,
          -0.2395640349322838,
          0.13171235315301474,
          -0.06734524527346218,
          0.35760859570085096,
          -0.19566414741451538,
          -0.1608490780515619,
          0.44886390384360353,
          -0.29786402150047747,
          -0.2919947531155312,
          -0.23309933753856862,
          -0.13512136610477005,
          0.14421340232230462,
          0.1370031136686196,
          -0.31028365812469094,
          0.2424904627801744,
          -0.040546890632962594
        ],
        [
          0.20015956808615318,
          0.06963899691180839,
          -0.2580270345948901,
          -0.35938079521109595,
          0.05527042951321636,
          -0.117198629634206,
          -0.10075024501112657,
          0.11230605362480191,
          -0.010973564547984893,
          0.23762245124311102,
          0.030787766504068198,
          -0.1306308848082902,
          0.11893630868563336,
          0.061174576872788426,
          0.20746240008883055,
          0.05010495750553932,
          -0.23920656362082834,
          0.020340894484780766,
          -0.002582062857938984,
          -0.23651326957399219,
          0.16789099298275587,
          0.17262812652353404,
          -0.6751889728257151,
          0.1033043593601524,
          0.24757968561622334,
          0.05090984368345822,
          -0.25440118543755286,
          0.19805533541864181,
          0.20892442647803947,
          0.1365229802100846,
          0.1527394104203391,
          0.03569719231510423,
          -0.11189342176059758,
          0.2920749195382132,
          0.04194424938400159,
          -0.34515792113848615,
          -0.09002957210273983,
          -0.16872393741209077,
          -0.0504353375641986,
          0.10089549073016613,
          -0.3356654698503348,
          -0.3428942859224095,
          0.04058779412193862,
          -0.07878598069406967,
          -0.08184820238804306,
          0.17850657585962934,
          -0.05285140217820773,
          -0.07707646006603809,
          -0.060849306694748556,
          0.02228042488399976,
          -0.002220085619196735,
          0.052841452242255504,
          -0.08031078290424012,
          0.2128019568416907,
          -0.02604181948124175,
          -0.2323934463636076,
          -0.09290681612314389,
          -0.0870595499505278,
          -0.13030009898842154,
          -0.13999011417802282,
          -0.3604592785291279,
          -0.18696086217948013,
          0.08148999534125137,
          0.22410816939166475
        ],
        [
          0.1861886657926237,
          0.029176907480711528,
          0.1752484019815505,
          -0.17909243378166362,
          0.140894254523267,
          0.19219603832694043,
          -0.14724609943226735,
          -0.011149030630486582,
          0.23941245797777685,
          0.38548494413224704,
          -0.04460262294430712,
          -0.14211074137116336,
          0.004811557886278758,
          -0.034678391988368355,
          0.22139023072026692,
          -0.0704436143692997,
          0.014236722699383211,
          0.1532932822832927,
          0.016146316510896742,
          -0.09436514126457422,
          0.1636177741297049,
          -0.244488226871707,
          -0.3996387153783896,
          0.004265778161242165,
          0.4644944348365406,
          -0.9238036618602258,
          0.3917652363928678,
          0.14800791361386342,
          0.1883018466143045,
          -0.11816714917314572,
          0.2210624163866472,
          -0.11757204175260057,
          -0.09036733665566474,
          -0.2114168887929575,
          0.23190344884763492,
          0.3508936203122427,
          0.22036263927422525,
          0.4677385034689485,
          -0.3148903149271047,
          -0.12329897866507368,
          -0.008398699876867567,
          0.03041947758389851,
          0.1944037941242737,
          0.0660418615948539,
          0.3384963359343354,
          0.26652996361963277,
          -0.288490974865961,
          0.09045192494528613,
          0.1194218636081733,
          0.1330592378137964,
          -0.07173774253124375,
          -0.2832936928683267,
          -0.21755208562931494,
          -0.3897739945597058,
          0.28381507243860926,
          0.11007520635353196,
          0.3117138238070669,
          0.17037075645620667,
          -0.2199310798924719,
          0.013782289458150581,
          -0.6138667694932116,
          -0.0786053711215756,
          0.20278323564417286,
          -0.2340311517652486
        ],
        [
          -0.21979749238786564,
          -0.2195739141886795,
          -0.19066707059566915,
          0.3435295128782103,
          0.20422749428542025,
          0.26076239983832866,
          -0.09527201894748451,
          0.10391986979165825,
          0.4533767158704931,
          0.32446621061506686,
          0.13528825885179152,
          -0.21768481807576034,
          -0.30667862931681555,
          -0.1542748962328791,
          -0.2521979781322919,
          -0.13928678223387803,
          -0.284698667638108,
          0.1569551675432251,
          -0.3519157107834445,
          0.2610353856625524,
          0.062436413578026574,
          0.23696741853767486,
          0.006065596423887894,
          -0.19780214468172908,
          -0.09202076735432185,
          -0.08979354589168691,
          -0.3960912357185253,
          -0.41977092475493866,
          -0.0815662006348732,
          0.1871347483441632,
          -0.14729688793114712,
          -0.36419744190265724,
          -0.1454159774054213,
          -0.149309659827027,
          -0.09717519114676834,
          0.3801467827811391,
          0.3780757586651811,
          -0.40424616158052007,
          -0.01705711105911484,
          -0.03890485198905538,
          0.024958580932021728,
          -0.11464547136636968,
          0.28689949404384246,
          0.04069279464923763,
          0.1647831518908383,
          -0.15017872852400166,
          -0.006348444665865339,
          -0.1142328396463316,
          -0.24868853188100093,
          -0.039560732341746965,
          0.08613062271598933,
          -0.15661464232929456,
          0.19499963886979382,
          0.3552517461114048,
          -0.06037618473901131,
          0.14144519568706476,
          -0.26908116527803083,
          0.11269205384663969,
          0.3394877210053307,
          -0.18682896176859579,
          0.19788029410249355,
          0.05605908893935025,
          -0.036701962498512215,
          0.0431733778942485
        ],
        [
          0.12129403359495079,
          0.16170325790056012,
          0.17607146599799742,
          0.3199388691142524,
          0.24627177948009726,
          0.01565440279326613,
          -0.13790601967810645,
          0.5220003040518878,
          -0.2998881837385969,
          -0.009013767516537112,
          0.024183712939472697,
          -0.5391269719906898,
          -0.33461064854412803,
          0.06929238447335812,
          0.10824157010313432,
          0.2508479342353201,
          0.2774957671985099,
          -0.07925302640623164,
          -0.22515928053174908,
          0.4369807336366678,
          0.21648192981599262,
          -0.03626937254964183,
          -0.05194284776691703,
          0.12781652957691111,
          0.2401956085178642,
          -0.20363235360725307,
          -0.0945203764470117,
          0.39662478928052136,
          -0.1585043458005251,
          -0.03950383436029647,
          -0.2077177298798361,
          -0.05496544627647201,
          0.11344176809687832,
          0.001821277033677171,
          0.1990273275837156,
          0.086328705175836,
          0.7932657884882761,
          0.15094885565499186,
          -0.0550990624478663,
          0.3193704478008911,
          0.02906400876469273,
          0.1030151942976774,
          0.053123411109875805,
          0.09206074592687673,
          -0.25151741243643794,
          0.039480542489398446,
          -0.11650078012401324,
          0.048623429014239244,
          0.250717407837869,
          0.2835275212642704,
          0.09001757665131113,
          -0.04192748476883217,
          0.20187034169508777,
          0.2064653882232139,
          0.00594598197333215,
          0.05111906844998232,
          -0.4663781325288695,
          0.3508569655803263,
          0.07931584541101133,
          0.5058626641023847,
          0.1700214075464769,
          0.16942091251978178,
          0.31589356359474186,
          0.32634161970527187
        ],
        [
          -0.02627787386360345,
          0.310862347413325,
          -0.2092049909886225,
          -0.18036776173519248,
          0.42674877833408503,
          0.03497079469215232,
          -0.17223672726917472,
          -0.14465423268145694,
          0.15022366525800093,
          0.004205086200518408,
          -0.07445151963578707,
          0.07202833451642347,
          -0.1344789900521717,
          0.5995092338899907,
          -0.10928657518003121,
          0.187182769000476,
          0.10084803089751165,
          -0.02387558939033469,
          0.16848113140276844,
          -0.14351139717070158,
          -0.005252582354546874,
          0.13598945952760594,
          0.14054418785732659,
          -0.06015320772201888,
          -0.07652125562972055,
          -0.2797182026725949,
          0.048092302454653575,
          0.19917693413890397,
          -0.3128639274493865,
          -0.0746911010263699,
          -0.2145588980309327,
          0.041751701007904284,
          0.015688582207915677,
          -0.4198536022327618,
          -0.06560857792749293,
          -0.21718302592034966,
          0.0006091482413126898,
          0.147643631204031,
          0.290205661928264,
          -0.09052304941392343,
          0.0739668364475062,
          0.06780502386145613,
          -0.14077972646326417,
          -0.3919343710221799,
          -0.3153559238776781,
          -0.15294299116638346,
          -0.6069681494661675,
          -0.38074489467023787,
          0.3148457256216506,
          -0.02271332124555558,
          -0.06108985959578247,
          -0.09960243291899346,
          0.008459636919590171,
          -0.20424731847651467,
          0.021254866207804517,
          0.12799788443302063,
          -0.045943284169631546,
          -0.35119847381651503,
          -0.015892461373604026,
          0.11534864228137996,
          -0.1372060219160922,
          0.04855367811770164,
          0.015178183132689732,
          -0.38711476937003736
        ],
        [
          0.025307956273780845,
          0.23963915307612707,
          0.12159645414943955,
          -0.1878471913380953,
          -0.11050626274531379,
          0.042156090900978445,
          -0.3293001608443811,
          -0.4124729108005225,
          -0.40845899654886697,
          -0.09912805373750039,
          0.374818317370797,
          0.05792766353204006,
          0.03899244806376668,
          0.29878416971197413,
          -0.040635298266733615,
          0.23032019968211015,
          0.05242043857137691,
          0.16428692044995638,
          -0.012015381442546283,
          -0.11924116384539776,
          0.07172189786027706,
          0.07407000113295155,
          -0.03255320769438304,
          -0.1320014199160824,
          -0.07053660778660631,
          -0.0044667314742034385,
          0.05144521944327349,
          -0.3328968212233171,
          -0.23015886283090223,
          0.0574091868479973,
          0.3873552104624158,
          -0.171792344551261,
          -0.10488530115296421,
          0.13804739937284613,
          0.3151076302788569,
          -0.06112809044888975,
          0.10059090664142796,
          -0.13684085488752318,
          -0.08083918117374977,
          0.05348201218441296,
          0.3326455576231813,
          -0.04102921654340172,
          0.07481802459387621,
          -0.22849071357004294,
          -0.10112913624552182,
          -0.26287125888699225,
          -0.1624135062304289,
          -0.11201413867726172,
          0.02232287372841204,
          0.2181258220300227,
          0.2014608642619155,
          -0.10958184316481699,
          0.015006404400667233,
          -0.04369810087638957,
          -0.20634772069909674,
          -0.3195265654445874,
          -0.004072302214953359,
          0.060595317107569525,
          -0.04459270269938993,
          -0.09705566577286902,
          -0.1651309814342667,
          0.05908021724434796,
          0.11561462127534597,
          -0.23303541515729315
        ],
        [
          -0.12508605186103344,
          -0.24204484239054325,
          -0.4891091671540889,
          0.06956025839186981,
          -0.074023563934853,
          0.21256300327049588,
          0.536551625977717,
          0.49848585895256803,
          -0.15831417302715164,
          0.08274511132088452,
          0.02847986720995562,
          -0.3532870672833402,
          -0.025184717575081082,
          0.12931703744405734,
          0.021779367408799336,
          -0.6249872859663795,
          -0.12679352047894285,
          0.3882962372486257,
          -0.07530164425797774,
          -0.1606935842335988,
          -0.17181828332419644,
          -0.30203089089401436,
          0.2195453904002301,
          0.593167049447915,
          -0.0005671349118127652,
          -0.12323406951905674,
          -0.042649554075090176,
          -0.039089824367673096,
          -0.04560510740607078,
          0.06775678398491115,
          -0.028824815675673025,
          0.534609741516541,
          0.12522423853596326,
          -0.04501444346548894,
          -0.1548848001468922,
          -0.05028897231860466,
          -0.2925005120929558,
          -0.11527974325319898,
          0.009625956430272488,
          0.199428176308049,
          -0.6641945136543547,
          0.4872641953030477,
          0.01628767558463416,
          0.039908948730457555,
          0.4073153371154136,
          0.4266028070159223,
          0.1427916675872099,
          0.621693381286799,
          0.0411449319448921,
          -0.21065989599081417,
          -0.30995605415896965,
          0.26424674817487637,
          -0.30891616141121625,
          -0.12933971772609662,
          -0.3010861370486283,
          -0.06483108687025006,
          -0.12394585441259925,
          -0.09877478555845011,
          -0.044266001202379446,
          0.0981906111237501,
          0.13208884771647864,
          0.12937787859011207,
          0.13153086298787536,
          0.3608006951912598
        ],
        [
          -0.14721377008602932,
          -0.15142820998141562,
          0.4143903112039113,
          -0.013898127762420921,
          -0.4879970911563562,
          -0.09530193670019742,
          0.10144995219869733,
          -0.2545360800047439,
          0.2736879463320657,
          -0.15701838284676087,
          0.536344898275929,
          -0.2361290694628724,
          0.29981839530546,
          -0.024601490988690057,
          -0.5567410447841105,
          0.21952795083830312,
          -0.14499680296522557,
          -0.03243882341163232,
          0.37295393555747175,
          -0.10685768681201928,
          -0.1233902978008695,
          -0.13595158260022797,
          -0.2422058063248219,
          0.23896648094119471,
          0.22500411406818027,
          0.1179077942375461,
          0.031530503387617134,
          0.2060981545894239,
          0.3620318656607198,
          -0.3819232036721497,
          -0.06325072598961913,
          0.22342126794530712,
          -0.008714831877688739,
          0.05589001596138869,
          0.023240404822794734,
          0.27243989494670134,
          -0.0292239274095407,
          0.12253541484920319,
          0.0627120675009529,
          -0.010880911156163553,
          -0.6014877832158504,
          -0.14128099578078612,
          -0.2425209610581467,
          -0.04093586689184134,
          -0.06393718182685011,
          0.22987164853712877,
          -0.04168934837071104,
          0.46238666703554254,
          0.12269012981642267,
          0.10617559288332742,
          0.03320538690765554,
          -0.21265055668935282,
          0.4186820850458395,
          0.007793482058403219,
          -0.23732255837102412,
          -0.08980394760879548,
          -0.08276274786776879,
          -0.145068154513709,
          0.32099432242522574,
          -0.041128553609586914,
          -0.155835056561977,
          0.09779330802318273,
          -0.06479870459970911,
          -0.01317006421182485
        ],
        [
          -0.18306070153534998,
          -0.4098472603475691,
          0.18379778832331922,
          0.05306057687851599,
          0.05479490265549776,
          -0.03325660975403499,
          0.2999798881453562,
          0.13680154969152958,
          -0.23466274954908453,
          0.09576349548698283,
          -0.01701148448958643,
          0.27451460736500355,
          0.012978893544117003,
          0.287657184954148,
          -0.16461913047913923,
          0.12540311385826516,
          -0.20189614852231627,
          -0.1262806100374541,
          0.04792342418566059,
          -0.024860333504947055,
          -0.34992821879872216,
          0.30462811916717486,
          0.2170219324703299,
          0.22033270719856743,
          -0.28998831266777747,
          0.1376940283033164,
          0.1405393141428649,
          0.21193825220033585,
          -0.3083928254643034,
          0.021535607711603996,
          0.1497674311989965,
          0.20189532162839133,
          -0.00862566425243989,
          0.15529790815732175,
          0.25295043674668516,
          -0.10745161291085807,
          -0.018629421507637474,
          -0.1075865499883348,
          0.00007638071770005661,
          0.01210657167912573,
          0.23110563089552125,
          0.42020777137902415,
          -0.012889809336216342,
          -0.04327051854306492,
          0.36179839159329963,
          0.03060225333499433,
          0.09648625215254288,
          -0.41389104378776503,
          0.2584355900572177,
          -0.1693847052895695,
          -0.28003908995154964,
          0.05713566777507965,
          0.06984034038915038,
          0.18229529900712296,
          0.07206564897863184,
          -0.09512760025735452,
          0.43902167752333116,
          0.18494804233055884,
          0.10769908592364956,
          -0.01613931577596057,
          -0.23241191076052573,
          -0.1026286978954167,
          0.12088264700954639,
          -0.2004267315441528
        ],
        [
          -0.02726958279459034,
          -0.0090228286196722,
          0.30333262963352997,
          -0.4211376588300525,
          -0.35628795096702665,
          -0.12445143823284431,
          0.10411622181501522,
          0.16170600414516997,
          -0.1920131641572787,
          -0.17548578284233882,
          -0.029301961278116444,
          -0.2497150061112121,
          -0.27088337103567933,
          -0.6753846747002884,
          0.07026995969107928,
          0.3655800702707748,
          0.05569624768405756,
          0.09775165237783151,
          -0.07257215270229807,
          -0.20470105860449378,
          0.1063766300334105,
          0.0681516053678755,
          -0.26903414209029086,
          -0.2500722109524068,
          0.0037369251305526016,
          -0.16853961965832084,
          0.3870947695183301,
          0.07151164782674858,
          0.4808441994348537,
          0.003922643688234028,
          -0.08734096647168306,
          0.3512270414899265,
          -0.05844309855233753,
          -0.17047355019662797,
          0.30099537001763627,
          0.3305436340832668,
          -0.1929576705645629,
          -0.0817394099347928,
          0.3979118477107293,
          0.22378450827222615,
          0.5636394378271411,
          0.12950378558507822,
          0.06335858737693484,
          -0.10774765399239453,
          -0.20152373502488702,
          -0.27866921187450566,
          0.028006681638155163,
          -0.12189009192209446,
          -0.3792157089678154,
          -0.1435207517727621,
          0.20358362974422461,
          -0.057076727523200164,
          -0.07237896185465689,
          0.22530903977867947,
          0.1180737956743384,
          0.2837949843258478,
          0.24538554932679185,
          0.31604400844342195,
          -0.510742914908664,
          0.09618819576683377,
          -0.29152234831407103,
          -0.14781986315732593,
          0.08302384122038556,
          0.2763546107280852
        ],
        [
          -0.2759989482159335,
          -0.049918144086828584,
          0.16522376943887868,
          -0.17266226943170995,
          0.18314832027866246,
          -0.11347027706947017,
          -0.16531836624022941,
          -0.19136651202202268,
          0.25573904004711084,
          -0.04634956017436699,
          -0.1652052064129774,
          0.4830840419821956,
          -0.6192787586670205,
          -0.11518293371809986,
          -0.09048383182944744,
          0.09439908029270144,
          -0.21643090896589967,
          -0.11670276825219988,
          -0.02499332024980811,
          -0.10247487988414597,
          -0.154191739961089,
          0.01776299506913441,
          -0.21515795127052545,
          -0.04635750009062777,
          0.007780497923602499,
          0.05157625793069637,
          0.2561893731077897,
          -0.03683789039217504,
          0.04631523080949897,
          0.14546055374086184,
          -0.057225346385151525,
          0.2577498988957282,
          -0.06429137844092496,
          0.05996075838286356,
          -0.09217414902230602,
          -0.16068959010751377,
          0.18339540270572877,
          -0.2605488413978275,
          0.23879587858657228,
          -0.08145070712909024,
          0.08501523135366458,
          -0.027931571350206064,
          0.12816962760815762,
          -0.046462105578334724,
          -0.5521874054800197,
          -0.6050409282234955,
          0.2411026138923719,
          0.06091084815970998,
          -0.20900119443358114,
          0.19902923268426617,
          -0.23325595187068135,
          0.21123886685842444,
          0.0536530752775281,
          0.11518767697100911,
          -0.22706365965585476,
          -0.11724335001618379,
          -0.3757408864929267,
          -0.27683041505525874,
          -0.3343836449821517,
          0.3052008973927755,
          0.5380042447024872,
          -0.09899910421297348,
          -0.2029017986948757,
          -0.027372405953247046
        ],
        [
          0.037859051133743264,
          -0.041961100322070594,
          -0.340079230272329,
          0.06025888395620389,
          -0.015095160456804192,
          0.2601438667869181,
          -0.19794760688610555,
          -0.031796779113841406,
          -0.18076370016706833,
          0.13822758624165565,
          0.11278522246762196,
          -0.1258002896848049,
          -0.21006881000189875,
          0.17933184805507962,
          0.16504740413737656,
          0.08544991713923976,
          0.06899693135567465,
          0.12496152646645005,
          0.2123515850416788,
          -0.20298238437235946,
          0.10843485694331881,
          0.1120853042290224,
          0.344779997120136,
          -0.10853656218638903,
          -0.5437773375926902,
          -0.14221493202189295,
          0.14042680476808156,
          -0.09924200114708241,
          0.2688326309778961,
          0.18323334772633657,
          -0.14188060979353384,
          0.08502726217406588,
          0.11560436922582829,
          0.22271472313123608,
          -0.12408700990727703,
          0.17915696430756245,
          -0.013572886098549272,
          0.03055110818229204,
          -0.020774463610724925,
          -0.054158151353513644,
          0.09904133642469685,
          0.059635769685058584,
          -0.25838330537973214,
          0.0487464481059798,
          -0.021931942468331234,
          -0.2039077963423851,
          -0.029163758778939633,
          -0.034719675176978625,
          0.10219311744681513,
          -0.10971035391835213,
          0.2205842809000503,
          0.04482802644407137,
          -0.556827654595081,
          -0.13186625977886862,
          0.21710719304384682,
          -0.010480466250301681,
          0.06301938221191444,
          -0.021945668284407863,
          -0.07199468606928466,
          0.3448020731119367,
          0.21470311266361441,
          -0.10567617597463118,
          0.12842010588741726,
          -0.06580757833748359
        ],
        [
          0.21339865801275046,
          0.009673355398279269,
          -0.2996216006334625,
          -0.3049589689833505,
          -0.2084316571697779,
          0.05477904322437358,
          -0.06558715656405238,
          -0.0051319701457515285,
          0.21706822355782324,
          -0.1761563340374788,
          0.035802563048927,
          -0.10029582019824484,
          -0.002843046655698111,
          -0.0436233148821902,
          -0.23430480251884547,
          0.25072890937563547,
          0.19633376851144776,
          0.0008572693065598466,
          0.02664307683644737,
          -0.303434480399892,
          -0.014074399337332504,
          0.15384438317550186,
          -0.03233548798842391,
          0.21600793940378027,
          -0.1432159504171794,
          -0.06409536863426862,
          -0.38032677862759773,
          0.3897615433230457,
          0.2836844039234007,
          0.1259960301398833,
          0.07514495201946592,
          -0.18209466717263714,
          -0.021599150144351903,
          0.43113109954755946,
          0.30264582189108874,
          0.011598887251941569,
          0.27929599660182136,
          0.18564726392154487,
          -0.4996509798845986,
          0.05971234363130037,
          -0.01885147604925518,
          0.473134141862605,
          -0.2930454052812233,
          -0.07149457579536608,
          -0.06532208637132889,
          -0.11324175115148091,
          0.07151711595733214,
          0.10077171770808077,
          0.3870248723041782,
          -0.018688385527632818,
          0.08767308969181323,
          0.07784846549273397,
          0.3710753474746497,
          0.21576650103253384,
          0.03244999738493075,
          0.39298690425600236,
          0.059681597833819225,
          0.46709028518606033,
          0.23250504619799686,
          -0.1812902439441086,
          -0.10315812225963014,
          0.1215614428754006,
          0.32963165692199903,
          0.26026545288194963
        ],
        [
          0.026526292903536818,
          0.2571833930675374,
          -0.05826649765387282,
          0.45905673924678364,
          0.12709573050443582,
          0.020219436322107286,
          -0.4834817295454276,
          -0.2436872438887253,
          -0.17848282363927534,
          -0.0711526841978995,
          -0.28625609037145555,
          0.0045875495606483045,
          0.06363053688897796,
          -0.2251474222349101,
          -0.04185355148171017,
          0.10588570212541085,
          0.054123255837772444,
          -0.2099486484982787,
          0.36544824880968596,
          0.15552431390260912,
          0.2184479912429274,
          0.35226030175405904,
          0.2592817397242084,
          -0.2243086289498323,
          0.06961831267775327,
          0.07627132056678833,
          -0.2427271059117575,
          -0.0320153145989758,
          -0.37952176615726024,
          -0.13505454275911102,
          -0.22370542453615758,
          -0.012902629341280922,
          -0.1560197114119542,
          0.04058609161131239,
          0.08990161964530699,
          -0.053290622282768076,
          0.1470514646178211,
          -0.024745771529606882,
          -0.2708122200548161,
          -0.01389492469034842,
          -0.4447176886816325,
          0.1292026638964644,
          -0.053679089930136606,
          0.21774269885132524,
          -0.44596144630406026,
          -0.2097925293450386,
          -0.4778932187109559,
          0.221717074985666,
          0.4332855119262264,
          0.05719062519139151,
          0.09336074607196146,
          -0.23290619942368163,
          0.13386023805683187,
          -0.16991082267054977,
          -0.15159644353003154,
          0.0885018469169066,
          -0.04675545998349849,
          0.0434178630733742,
          0.7312685536213455,
          0.49535395840428303,
          0.5369392577537438,
          -0.0448601450353901,
          0.16374678070176832,
          -0.08950002664902687
        ],
        [
          -0.12250192040699334,
          -0.02917441826164078,
          -0.3156182442315476,
          -0.06822685910183283,
          0.11243387098381648,
          -0.08397033941600922,
          -0.3209236211195796,
          -0.23753008116837201,
          0.36426273450755803,
          0.04899416168466134,
          0.10477302897758028,
          0.2513850633763554,
          -0.47753834355412084,
          0.0188067725336176,
          -0.04593466176874569,
          0.10591290957781038,
          -0.49855160131980897,
          -0.1517823409733893,
          0.09214775234702745,
          -0.1325254201424346,
          -0.017034250984478565,
          0.24827014261521355,
          -0.0483065257646473,
          0.21112115914953133,
          -0.0639375058171646,
          -0.049855988125341574,
          0.343435304984485,
          -0.26699676954678725,
          -0.09069413447188637,
          -0.18039799342794788,
          -0.23650670883953243,
          -0.34479049767961273,
          -0.20680799345552772,
          -0.1238816794982973,
          -0.07727614749266933,
          -0.09329473753164881,
          -0.35351092387625815,
          -0.20814331867136107,
          0.10195741467203424,
          0.07827001713756591,
          0.02110272064084185,
          -0.08084544169532404,
          -0.05782117921843511,
          0.2110607110643627,
          0.26216740553358087,
          -0.45779321801031925,
          0.14835573570012608,
          0.28415193243353176,
          -0.08506136097093014,
          0.26826046518621605,
          -0.18889747469957627,
          0.04282330635118728,
          -0.3505196196529278,
          -0.2668843490164497,
          -0.09296661578025746,
          -0.2936388245809776,
          0.4594246100268516,
          -0.2208796882361429,
          0.47307172622748084,
          0.26549456937781907,
          0.42409414080309793,
          0.24628833602416622,
          -0.08606885092692443,
          -0.1910050156883365
        ],
        [
          0.3003870635862712,
          0.14777163712047567,
          -0.2762930966092611,
          -0.27311538077111147,
          0.21073208951041583,
          0.08875276830727272,
          0.40119650931782086,
          0.23651064165848124,
          -0.12695094608679716,
          -0.37568080707493035,
          -0.3460755890515306,
          0.2887001336503523,
          0.12633128551640327,
          0.20872572297535133,
          -0.21679252567935933,
          0.33345228367527774,
          -0.46179860799914124,
          -0.05146360896204305,
          -0.02957407312443536,
          -0.5910134415718217,
          -0.007485790674197334,
          -0.022197409246465294,
          0.06030169563225007,
          -0.34173411126270814,
          -0.15312233647564777,
          0.3319592105754526,
          -0.18375232616718773,
          0.4181382867710028,
          -0.696434522788866,
          -0.06615812243306322,
          0.241138129029749,
          0.09717183136018448,
          -0.19991755722506876,
          0.7383661095450115,
          -0.1714112633996117,
          -0.13516492400993363,
          0.07250450170333682,
          -0.21805535056961692,
          0.1105360853048137,
          0.34484323701387737,
          -0.23879099146213537,
          -0.06338980811053875,
          -0.5978227167637095,
          0.0010956888942758813,
          -0.1090889255904499,
          0.16879711320331223,
          0.19254354330687348,
          -0.1491129976009965,
          0.3685078735438675,
          -0.2655089974053802,
          -0.04558927633290897,
          0.0634370874190548,
          0.2102007746274276,
          0.07618877340615392,
          0.0832422161151259,
          0.174819300998997,
          -0.04044195755216012,
          0.28241314089187736,
          0.017710745057834463,
          0.1103783369890316,
          0.03984977643059705,
          0.08744537517902495,
          0.0027184540000687036,
          -0.17852486664099226
        ],
        [
          -0.08082516238483016,
          0.30169191672014894,
          -0.270090490385865,
          -0.17402333197471068,
          -0.10318245815697524,
          -0.09607716803269388,
          0.06027915049749203,
          -0.156666226451738,
          0.05297925729173554,
          0.18103819617196013,
          0.08668632519035221,
          0.07014738464488407,
          -0.179041612972135,
          -0.15612256405048264,
          -0.09655677087569062,
          -0.1852338209951139,
          -0.13353735739411265,
          -0.11887708521150558,
          -0.14097720132216043,
          0.007179276131549727,
          0.14329985580675753,
          -0.1613322059073259,
          -0.0013982460782434236,
          0.31770042877839116,
          0.18992633309790904,
          0.028370523480362588,
          -0.12594616262933567,
          -0.334647689347472,
          -0.04554515057166964,
          0.04191120180112076,
          -0.10241352858364271,
          -0.06269477030044963,
          0.2396491905353782,
          0.19990113871939671,
          -0.06459099862507667,
          0.10598521067080865,
          -0.5211262597235634,
          -0.4224251789046292,
          0.29909452772133827,
          0.04482100308294374,
          0.07150099673027609,
          -0.15908011361695518,
          0.0006923463441275077,
          -0.08171501429733229,
          -0.05177860252780779,
          0.15159562954293157,
          0.10732077520705643,
          0.02127348278460565,
          0.28708691798097125,
          0.06773692341301256,
          -0.06662401340021655,
          -0.3633213575444282,
          -0.1910476234834908,
          -0.17919575449525085,
          -0.2995228349268759,
          0.0012176377652648417,
          -0.2421032682952816,
          0.06446437320179914,
          -0.24169522435202107,
          0.16564671534683348,
          0.006339824791491778,
          -0.07946979848954767,
          0.11255674154307749,
          -0.03137780052572
        ],
        [
          -0.1558253203923707,
          0.08240264842680196,
          -0.344989653952929,
          0.03107750396988227,
          0.2851843444608585,
          -0.10689927468093724,
          -0.1951716859084875,
          0.030426955896315076,
          -0.14175450376148196,
          0.04889755391726739,
          -0.0045333632638111816,
          -0.06997348106023811,
          0.12273191539549186,
          0.055305397278034726,
          -0.2553094323244024,
          -0.3908851572182697,
          -0.1621771126309042,
          0.0448349654203798,
          -0.02315114267463126,
          -0.4968917690356323,
          0.013485163606057745,
          0.07867715067606135,
          -0.18283518867717521,
          0.0632180542633354,
          -0.1775200659474259,
          0.014725923143663855,
          -0.1601684572645327,
          0.08348111558940739,
          -0.14604225923028594,
          0.008706540583067626,
          0.07382561605944386,
          0.3107157853559763,
          0.418162446787619,
          0.03556651870909507,
          -0.06665303881030374,
          0.194913339637054,
          -0.1921409379853782,
          -0.08007892106648114,
          0.037147923784609696,
          0.19170189417103797,
          -0.004948731070613587,
          0.3520560875343105,
          -0.11439319132994534,
          0.010809770011507918,
          0.3394289691200598,
          -0.20034330181495175,
          0.1325085184567508,
          0.2291322931584696,
          -0.026855951524844903,
          -0.11259447376378967,
          -0.14819566489630911,
          -0.24532716587565342,
          -0.0017223883195917988,
          -0.03728196041221081,
          -0.19882584100349382,
          0.04326210487449689,
          0.04568421303318681,
          -0.03432571611139617,
          -0.2819615175382098,
          -0.07993677052796123,
          -0.1944216473263837,
          -0.08890181559808447,
          0.10535595697568098,
          -0.17093597760313012
        ],
        [
          0.22643772004256685,
          0.049158906165435945,
          0.14767785237366693,
          0.0598495661129614,
          -0.21776562130179178,
          0.021963274816275212,
          0.05057915325867214,
          0.38693590761105684,
          -0.01675780744890401,
          -0.1084644125037287,
          0.11770359290140223,
          -0.11017992354441104,
          -0.38324870788233106,
          -0.15378338849022197,
          0.04060329263977091,
          0.06639818219472483,
          -0.3577248382925372,
          -0.13761011966580347,
          -0.32323057513599873,
          0.40020416349044596,
          -0.11983081225757938,
          -0.22654039799584946,
          -0.5621439029809397,
          0.3342818264488332,
          0.40854638645289704,
          -0.033605757844775166,
          -0.2364364544270332,
          -0.3223564631803317,
          0.06436200257474298,
          0.37189145219485525,
          0.08009652918897987,
          -0.09184628096509226,
          0.030995550461785298,
          -0.19865959202890593,
          0.07145634330540059,
          0.2014675784676406,
          -0.22644878433439924,
          -0.06323167130362523,
          -0.2219435874175665,
          -0.25207335160404615,
          0.05900603834206795,
          -0.11099466267652634,
          -0.07352469123454554,
          -0.03353717683574273,
          0.39480290835241316,
          -0.030912959260932415,
          0.09970024173945216,
          0.10141820412903019,
          -0.1022413456423574,
          0.24746687747409468,
          0.29545579546678524,
          0.1453956549665102,
          0.09129587437520466,
          0.011847191418049598,
          -0.17294600041949162,
          0.041486913688561305,
          -0.529804518137331,
          0.2110784520933304,
          0.08956130683333004,
          0.2115383838775598,
          -0.5342994625120538,
          -0.046430924249439426,
          -0.2121667237752641,
          0.29519961724831184
        ],
        [
          -0.2097643490509465,
          0.08413587550352818,
          -0.21277250591531782,
          -0.08168017030649222,
          0.03701096665027222,
          -0.13249320150244934,
          0.07893712822911272,
          -0.2703556853798677,
          0.11411063387016618,
          -0.24418465521558735,
          -0.18550922972688727,
          -0.1466038398294182,
          0.028852180691607915,
          0.0979159501721771,
          -0.16969659623020447,
          0.2114343707952193,
          0.1858924873482062,
          0.12533598539828064,
          -0.2584041540367427,
          0.15929361404343315,
          -0.05258346081929287,
          -0.29699882199039324,
          -0.04194728531992913,
          -0.16253429266550096,
          -0.3142017749846248,
          -0.017164087550606392,
          0.123226954612125,
          0.7010866261044201,
          -0.362649237948646,
          -0.2006040319842792,
          0.10079378062764938,
          -0.16830883526501456,
          -0.23432141971751205,
          -0.11456272153584679,
          0.29569363153421435,
          -0.086480400397015,
          -0.001774655062755483,
          -0.17595418352262251,
          0.2673385411205468,
          -0.16665218137379,
          0.1959302746806222,
          -0.4167812849093117,
          0.05110509585457623,
          -0.09185331290004495,
          0.024726562399685254,
          0.009532029205543878,
          -0.10279997224775841,
          -0.1609074204070468,
          -0.14718216628519581,
          0.03599438124695179,
          -0.12092851792173699,
          0.13282603808655183,
          -0.23710197978881709,
          -0.19635724523371614,
          0.09270641121573633,
          0.17714209340507295,
          0.3898405187365817,
          0.042699703449470085,
          0.0197626279611342,
          0.23277149212275464,
          -0.2962769133266874,
          -0.18415299937831509,
          0.1350232916344073,
          0.02840991892768658
        ],
        [
          -0.013932510071504523,
          0.04028055148123395,
          0.23446049638735794,
          0.1829043564105864,
          0.12047890522606487,
          -0.14159595655776108,
          -0.047430061598177344,
          -0.2569647956317812,
          0.5790580746705513,
          -0.23503404341161843,
          0.23864875785775205,
          -0.1214503972207838,
          0.06364836729183511,
          0.25892274728830733,
          0.21672630072780275,
          -0.40976329695015123,
          -0.15310120124948867,
          -0.1892773680631977,
          0.3116224572863743,
          -0.1689214916416464,
          -0.023427614175588207,
          0.11055187897708753,
          0.3626472163759309,
          0.0455336021137759,
          -0.12870499598390397,
          0.2867469624939382,
          -0.46847566253489087,
          -0.047859199027635364,
          0.08785707168230808,
          0.02899065725031947,
          -0.008554995805584512,
          0.10856563108231267,
          0.13805178633143977,
          -0.39621575035141365,
          0.15261878097917642,
          0.004308186845905887,
          -0.29548927235487055,
          0.5080532843118994,
          -0.026275439523560755,
          0.04105506346738224,
          -1.0755008288907768,
          -0.14593413939020117,
          0.4636692594221795,
          0.12611241168552018,
          -0.4059875681095732,
          0.4277585408680939,
          0.17814702630603746,
          -0.469917523936104,
          -0.4386116104028508,
          -0.05673141432029073,
          0.2949040905356234,
          0.18469142318567372,
          0.08583406545532003,
          -0.0751388992811119,
          -0.18927157615189627,
          0.11003716069451105,
          0.10493813090768651,
          -0.34966259455272114,
          0.026634453304439122,
          -0.15852072312919308,
          0.42581983960681324,
          0.17634525744501847,
          -0.0257061594510566,
          0.16954265366120677
        ],
        [
          -0.07374144578390626,
          -0.10370259598369141,
          0.13309444417250924,
          -0.1234127315531923,
          -0.10198982591875345,
          0.02263003738384504,
          0.07933076736304082,
          -0.19915647105919274,
          -0.12151395892240159,
          0.3241136076417764,
          0.30049998530026883,
          -0.3231543015563249,
          0.450963187122354,
          -0.3762455306051943,
          0.2677365879726545,
          0.22045308449309123,
          -0.03290461852923029,
          -0.11509690006096791,
          0.14947864836447033,
          0.16228814896627455,
          -0.056054640563293956,
          0.039386598678980485,
          -0.11816327987734294,
          -0.3233274296133027,
          -0.5683376947908917,
          0.1359620639044869,
          0.2307305601417245,
          -0.00004851453935989327,
          -0.5913281937197483,
          0.0780852323137793,
          0.10825592090530424,
          -0.1107559224406532,
          -0.2963473583321335,
          0.24047454229201704,
          -0.07490167426915749,
          0.4460549789309255,
          0.4350997662860897,
          -0.21137697919121531,
          0.1855473909306407,
          -0.05825810544101934,
          0.11647193182605392,
          -0.16809587123738642,
          0.307760623128735,
          0.12517156467774485,
          -0.22118613092969772,
          -0.1310029303116039,
          0.19881760308080024,
          0.3111417013828181,
          0.19397859246890936,
          -0.14680944284332562,
          -0.014117494125057537,
          0.21815745190585378,
          0.35809306154109694,
          0.20362052517046753,
          -0.288623539996481,
          0.07711169499401166,
          -0.027636979172152052,
          0.03365301644169526,
          -0.16927353914944826,
          0.37459561499671534,
          0.059111842318205446,
          0.03456213854044613,
          0.02874089596220045,
          -0.4994861239431943
        ],
        [
          -0.16212779376270695,
          0.24044765282118202,
          0.09490048850603768,
          0.14533160503641154,
          0.2822693383318642,
          -0.14854040888186826,
          -0.19559380551498703,
          -0.3403466640003226,
          0.10175838210773025,
          0.29559716044489887,
          0.2128853543919747,
          0.03655071737218137,
          -0.3502676735123526,
          -0.1313731743487721,
          0.21934801827838868,
          -0.1588853553311594,
          0.06095865309590616,
          0.4803810123729685,
          0.08231788496515234,
          -0.0036627209659552177,
          0.08988918697500531,
          0.03707714601631087,
          -0.17876582502977012,
          -0.1524144908256808,
          -0.2920030924761753,
          -0.07500627777977713,
          0.05790915134081991,
          -0.11988377444842617,
          -0.13956348163754118,
          0.05308682975854977,
          0.4074628767551151,
          0.12893722257763612,
          0.14139384633972665,
          -0.19937755192846932,
          -0.16707472840615034,
          0.09350408091020815,
          -0.11905062357528831,
          0.08023495402966897,
          0.20135960532597333,
          0.1282432906560694,
          0.2373114408293649,
          0.0019797787520005545,
          -0.270960200089348,
          0.16227352762821082,
          0.021174480285793912,
          -0.16606790240667985,
          0.045483405337934824,
          -0.3115398786458965,
          0.3224421145794684,
          -0.08882370761209187,
          0.07225778094332917,
          -0.10276516767549286,
          0.021583585100245696,
          -0.04905949033139721,
          0.18990885706713725,
          -0.057271175974145654,
          -0.3084686585447403,
          0.07141864020224141,
          -0.03486687032344215,
          0.08736511852247823,
          -0.25096960536969576,
          -0.08664717398862286,
          -0.2748257143159262,
          -0.08175338934362182
        ],
        [
          0.32593259069170105,
          -0.26267097996000627,
          0.2511045682134397,
          0.22623233612069402,
          -0.23179877143029218,
          -0.25349354982244243,
          -0.537884680250425,
          0.3263676248849103,
          -0.29639472313739534,
          0.064914004896069,
          0.06910328051236818,
          -0.2010840762841174,
          0.09225261557706416,
          0.02147138463011775,
          -0.45540997742492895,
          -0.083717309220751,
          -0.08276370884716214,
          0.03875494608754088,
          0.6271165971687922,
          -0.1973843413340078,
          -0.3180361379626795,
          -0.501915160727039,
          0.12084172538792134,
          0.01684323858242503,
          -0.2174766006235926,
          0.03168088590598248,
          -0.002568364505799074,
          0.02471482164918603,
          0.15277988693752073,
          -0.35272815691548803,
          -0.08561212674311588,
          0.10383851386301501,
          -0.1199962050189273,
          -0.026984179213022753,
          -0.2612955902657597,
          0.02319139661221246,
          0.2274420636250067,
          -0.14430185698512643,
          -0.34637168108890204,
          -0.20571164390440316,
          -0.08388371940498775,
          -0.4626144193887414,
          0.012067433698481516,
          0.3263320410303843,
          0.13801658565649283,
          0.11925044821208867,
          0.3545432480426808,
          -0.6322716119602625,
          0.11132318108446819,
          0.2592580955455234,
          -0.11740893109589219,
          -0.0335229518837688,
          0.3051716070155722,
          0.3884312307702303,
          0.0777483823140154,
          -0.11187989260347472,
          0.15021107462526886,
          -0.22960655187589601,
          -0.32663559733673136,
          -0.10075961235246692,
          -0.15057994452448403,
          -0.2298388111255269,
          -0.020733272496819357,
          -0.22158400953775126
        ],
        [
          0.045085521096942485,
          0.2322361472636158,
          0.527567297074526,
          -0.23629124474180735,
          -0.2345846891784387,
          0.31575485959238275,
          -0.7438313330860655,
          -0.3250113580783151,
          -0.5853520535180737,
          -0.03678577705285951,
          0.5413718987457596,
          0.1346333248844418,
          0.1920594576341096,
          -0.2179196136703283,
          0.11592818033822964,
          -0.0643528206809445,
          0.1589618542675584,
          0.11968749922726822,
          0.39228803676797996,
          -0.18349998481034313,
          0.4210596534472982,
          0.13074740951752264,
          -0.04138247978868576,
          0.1419398772570644,
          -0.06769779964677264,
          -0.3605491193422015,
          0.18147699806215256,
          0.27942056546461186,
          0.22483181685605955,
          0.2502772936642294,
          0.03443551967798449,
          -0.019551484297026637,
          0.2451565112896871,
          0.01830527491954946,
          -0.24518934398636597,
          0.05955622716962423,
          0.3898760576747557,
          -0.16691967628968107,
          -0.4867952296835838,
          -0.011957531122842579,
          -0.019923257405985245,
          -0.22918181422046605,
          0.1277670841993941,
          0.03624288331843204,
          -0.3389029859047876,
          -0.13557762423485575,
          -0.2907204961016266,
          0.16293687510886007,
          0.5688878253969825,
          -0.34294084167722866,
          -0.10082903715383373,
          0.2115649478505546,
          -0.03762720170488942,
          0.19819131520664265,
          0.07112407105440613,
          0.23939333130154183,
          0.12459367810600933,
          -0.10486762568406068,
          0.1609899096646707,
          0.03744896116696805,
          -0.10002472380369438,
          -0.27415810643392713,
          0.07490986768954926,
          0.012458208805790934
        ],
        [
          -0.11788200068489363,
          0.11498890246771473,
          0.10930027131109384,
          -0.47093030700598165,
          -0.3865580828255861,
          -0.19475083481024644,
          0.5507456128843171,
          0.021600413862322358,
          -0.18152378027694666,
          0.07679671159615109,
          0.015336658296438797,
          0.6055112641249426,
          0.09982081964924294,
          -0.07159662904844992,
          0.10410353005110982,
          0.2630805595726041,
          -0.25776602419625905,
          0.04905134686565625,
          -0.3109971143566421,
          0.04408376771832299,
          -0.19343645067680076,
          -0.02086012353302919,
          0.0029451431376747573,
          0.2099013426805048,
          0.2937811743569972,
          0.3741001488579646,
          0.1959445425644199,
          -0.19737971133767707,
          -0.13669649216446578,
          0.011969850759400784,
          -0.1754373936790266,
          0.068335516704473,
          -0.022236348162204624,
          -0.059130012263556374,
          0.45294597849060686,
          -0.053748888514987776,
          -0.34916324718540415,
          0.283751685459332,
          0.3709637225933081,
          -0.18875586264622934,
          -0.24529675007259813,
          -0.1592086920194516,
          -0.16062456699091107,
          0.01567240196789697,
          0.11154094477491294,
          0.40943227245499336,
          -0.16806390379408256,
          0.09198161039316922,
          -0.23358052513247543,
          -0.3055708310415073,
          0.09519193429232714,
          -0.025863930478056376,
          0.13344612827886282,
          0.08294386041628816,
          0.22720668414497172,
          0.10134842066015105,
          -0.11168811836003244,
          -0.3029201742598658,
          0.1389852846296843,
          0.42507684983970456,
          0.2922044593177363,
          0.06829019370093707,
          -0.14796517778000373,
          0.2561430787531851
        ],
        [
          -0.01043785401059564,
          -0.02998596957024069,
          -0.24274488580888107,
          0.021555258994940384,
          0.06357116549026491,
          -0.14057619401818236,
          0.2441968981789024,
          0.12559628843661466,
          -0.38578493294137955,
          0.07028126072458507,
          0.0017711008207305235,
          -0.06920495989785652,
          -0.45266170462894056,
          0.19461624542186598,
          -0.44130255163563836,
          -0.16774305116021562,
          -0.14946564897478068,
          -0.030870395173499144,
          -0.0797213142680083,
          -0.06409372228410894,
          -0.1182309636768513,
          0.0341926908809899,
          0.1702393988213697,
          -0.2972689894620788,
          -0.13565219427837646,
          -0.1054574402385675,
          0.33865336447466127,
          -0.1135519725276486,
          0.010123037538112493,
          -0.16362638146508934,
          0.1038786340780544,
          0.22639482407389672,
          0.0181330647371432,
          -0.06712084067316347,
          -0.2554328067194867,
          -0.2599879807267823,
          -0.0638055652814997,
          -0.08992170482394815,
          0.2581251123790623,
          -0.419832526726292,
          0.1339865978177448,
          0.062355044886169365,
          -0.3200555693991024,
          -0.1416720411463186,
          0.2891360731214765,
          0.23809617183218149,
          0.17969689193638977,
          0.25335116609052627,
          -0.4219412927325993,
          -0.29466868161826854,
          0.168982719825858,
          -0.05472907079484986,
          0.16252756441487592,
          -0.18796393453257035,
          -0.05115369697563902,
          0.19287169735307347,
          0.005453781940190979,
          -0.2868161885967705,
          0.02905047176759218,
          -0.28829687426052875,
          -0.03226522180207886,
          0.4291474005964438,
          -0.06933585239583384,
          0.1261247626037916
        ],
        [
          0.16204345000542514,
          0.2618591305743698,
          -0.37328752700309387,
          -0.021350827979947667,
          0.09565937221675438,
          -0.11635584810293473,
          0.4110950049234814,
          0.24126112046878628,
          0.3670042697792331,
          -0.09291677097686318,
          -0.1345097528852656,
          -0.13389472142340464,
          0.03977694454780007,
          -0.1389113119251341,
          -0.02382658644184013,
          0.33150384033362046,
          0.11286606243299926,
          0.0764477731523264,
          -0.1621195997621961,
          0.1127040812367343,
          0.398781611608112,
          -0.020380757928518473,
          -0.353719341645796,
          0.332640961700349,
          0.15011435909275866,
          0.19908335356704146,
          0.42747352945543643,
          0.3924884410812424,
          -0.1810144383144665,
          -0.03269665531136298,
          0.14368648157022354,
          0.09825778585205366,
          -0.16390565051134978,
          -0.20784043202994396,
          -0.056203525636535585,
          0.33231376511383914,
          0.2986503738115048,
          -0.227265303979373,
          0.06924467299629859,
          0.0688410479876957,
          -0.0012273493037235283,
          -0.3766302067545902,
          0.2808338897236892,
          -0.053335891410968124,
          -0.04449826653580843,
          -0.09718571713905616,
          0.08292816790970277,
          -0.2923464988602162,
          -0.12683438536447633,
          -0.25226929061456216,
          0.03375749059823733,
          0.28846564280966486,
          0.39076669772501516,
          -0.05627718094986826,
          0.14345631070224274,
          -0.09575509306291045,
          0.1121166038905827,
          -0.7455838914511519,
          -0.10008503190665943,
          -0.4139984649887008,
          -0.2018627326905125,
          0.39837611903945164,
          0.3018118640826928,
          -0.700635934309322
        ],
        [
          0.06541567527614249,
          -0.011834555640344321,
          0.33698542205882925,
          0.427644596349717,
          -0.3572100898644219,
          -0.01692538688633704,
          -0.17663298131135502,
          0.05893620721605929,
          -0.49909848235875054,
          -0.1060787016892154,
          -0.07471872885201661,
          0.40388829666918885,
          -0.08491838140810616,
          -0.06646106528225171,
          -0.19301718121116662,
          -0.0016706918166613223,
          -0.26234908189045314,
          -0.12706527695022682,
          -0.3646665272894269,
          0.22096342529709306,
          0.05324696762068303,
          0.27342785663654906,
          -0.12139797076982091,
          0.5562416700611034,
          0.09234471507009306,
          -0.2543672156320293,
          -0.23417488284318522,
          0.2259976112926207,
          0.05493238450758687,
          -0.04280391541841565,
          0.17187606104697142,
          0.05298650632670038,
          -0.10113467281473279,
          0.005595716422810616,
          -0.006591835936145751,
          0.052470074467735245,
          0.24634419873809604,
          -0.4710771656654129,
          -0.726658114273928,
          0.2392487869653066,
          0.39553530879734966,
          0.07959214315432973,
          0.05344850374146787,
          0.04754082536297697,
          0.012494874269493547,
          -0.3608522278111207,
          -0.05650700149291281,
          0.5231240214141495,
          -0.4348585038034,
          0.20408982530515515,
          -0.0571073604461615,
          -0.01580683793273402,
          0.0948225109831248,
          0.3407398982918213,
          -0.10431938032680536,
          0.112316737498228,
          0.023254087699157086,
          0.5880787305782331,
          0.01938299477364464,
          -0.197757844407475,
          0.06319289627784806,
