{
  "neuralNetwork": {
    "numInputs": 11,
    "hiddenLayers": [
      32,
      32,
      32,
      32
    ],
    "numOutputs": 1,
    "hiddenWeights": [
      [
        [
          0.30528522354055176,
          -0.5418549800634874,
          -0.16467620909257477,
          -0.8013158307521141,
          -0.32276882967813153,
          -0.1186490643653253,
          0.8949733077305068,
          1.5348716818859482,
          -0.15098316814898416,
          0.3812537715165888,
          0.5846938459455564
        ],
        [
          -0.4307446599829846,
          -0.6030769999423581,
          0.19377245949911767,
          0.7978679700663192,
          0.06263965522051355,
          -0.16737785858372733,
          -0.16433942130164608,
          -0.2607898219107977,
          -0.25028924918962187,
          0.4495403307159951,
          -0.3080142438619436
        ],
        [
          0.012967830499138777,
          0.9562310660818257,
          0.7128072475457224,
          -1.0125300332142944,
          -0.2518613652006931,
          0.06965069924315911,
          1.7244731200613463,
          -0.8624884552216263,
          1.0548203164576235,
          1.0500516150669212,
          -1.0409497327212869
        ],
        [
          0.5478455098757092,
          1.2664941083249939,
          -0.5820678764675072,
          -0.006390627191408391,
          -0.0465629715587133,
          -1.3191802166288626,
          0.17191280882695462,
          -0.15627982999195078,
          0.18303916052176328,
          -2.73079897535527,
          0.6539132370370527
        ],
        [
          -0.881417123971111,
          0.49807679970931523,
          1.7068989449284457,
          0.27437378444007965,
          0.9853446837521599,
          -0.9883383871056749,
          1.8858191125847676,
          0.45052214177967914,
          -0.19817835679907575,
          -1.7519480389660032,
          -1.060093328134175
        ],
        [
          -0.4245319208781564,
          -0.48408607427879513,
          -0.5211870176208012,
          0.06219232718947655,
          -0.013187404918044716,
          0.017582276999173946,
          0.03734757191799464,
          -0.35001865133415794,
          -0.3426100425820454,
          -0.5396448728224866,
          0.12613071175991208
        ],
        [
          -0.21099684771709726,
          1.3664063171648801,
          0.799969968580295,
          1.337487076640103,
          -1.02543938084493,
          0.05491315752172423,
          0.0375412577870521,
          0.06155389872411739,
          0.33403111777615097,
          0.22331224198458882,
          0.47401182544434134
        ],
        [
          -0.22048854498729678,
          0.9681232538138226,
          -1.0686942322575075,
          -0.9332007030791505,
          0.8328920005834629,
          -0.27473248905619074,
          0.666917762708129,
          0.9966628706215266,
          -0.2580756367527907,
          1.9919832935758977,
          0.41851825490972
        ],
        [
          -0.033997345129404,
          -0.8647787693413992,
          0.30811187023118464,
          0.5230512595760342,
          -0.26897736064520195,
          1.3766407364035913,
          -0.13343949004296038,
          0.2583812948232434,
          0.24206998223147094,
          0.4051526882652263,
          -0.32292373235912986
        ],
        [
          -0.3683850483734039,
          1.1363011725649652,
          -1.3660969408473191,
          -0.34806126830971923,
          0.015769623298162467,
          0.7552495613649848,
          0.11872417894203707,
          -0.06834133218723477,
          0.3730672948197416,
          0.08066727847116863,
          -1.6703009908593478
        ],
        [
          0.36066312800330763,
          -0.23780717106827873,
          -0.48253982899507863,
          -0.7103118781545518,
          0.19980612899795028,
          0.0847005055096886,
          0.15789815815141625,
          -0.4780663548549359,
          -0.17021573856428268,
          0.3584527317620727,
          -0.09404837358773399
        ],
        [
          1.6616032900932296,
          0.5601905936222048,
          0.600288070851457,
          0.02292241348057395,
          0.7605448495838457,
          0.3493358951619241,
          -1.9075199242982193,
          -0.7211741987803337,
          -0.18072012206949623,
          1.1384256203241623,
          -0.15694047904889202
        ],
        [
          -0.2665874513626755,
          0.9225191407197914,
          -0.14617989984310953,
          0.06501146965595932,
          -0.210705254820845,
          -0.8986607418307544,
          -0.9686961502386565,
          -0.4151037625491082,
          1.3507366978330146,
          0.2419698814899244,
          0.032187167767697464
        ],
        [
          -0.31105900312125806,
          0.5831582859526498,
          -0.4100487438722941,
          0.21246530913245976,
          -0.6686148713296988,
          0.12658763214193147,
          0.15942677098356092,
          -0.11235025864748574,
          -0.6617841484857925,
          0.3299941485517446,
          -0.5140529985269144
        ],
        [
          0.36645511872680847,
          0.0572434569196614,
          -0.29722681524438027,
          -0.16790969306839224,
          -0.46372400396456437,
          -0.6387152309554295,
          -0.18892106875104375,
          0.021460987196668956,
          -0.6308058218926871,
          0.3860574993274292,
          -0.5416108853847181
        ],
        [
          0.03271420687672472,
          -0.23155280905790743,
          -0.4965898442718378,
          0.049576886247664646,
          -0.9425465604039542,
          0.2733579306185866,
          -0.41021728113653755,
          0.14331447650582202,
          0.004746820192293711,
          -0.6403615844813169,
          0.16605455094572896
        ],
        [
          0.02828069845940355,
          -0.8025494359870988,
          -0.42158221983181127,
          0.20090686467857677,
          -0.2431819526999655,
          0.08839815658399508,
          -0.25668698399854617,
          0.2854770327241753,
          -0.23821768452934544,
          -0.2640135774298923,
          -0.5313803181484584
        ],
        [
          -0.6050581373402567,
          0.5866225766359682,
          0.806769598373857,
          -0.3902645610057669,
          -0.3370330813199688,
          -0.6993898497073039,
          0.49343991768373974,
          -0.14223716592632657,
          -0.12980259824610077,
          0.039039532761734594,
          0.1472183419691492
        ],
        [
          -0.06297900685962561,
          -0.8001997936356879,
          0.39970283098687553,
          0.7536764978738604,
          -0.1488950138049853,
          0.10212822028969784,
          -0.25400881261673935,
          -1.0005324949487013,
          -0.6545824713822616,
          0.21765283935661986,
          0.209444919820552
        ],
        [
          -0.9311425655197842,
          0.4131746387810664,
          -0.4436062307052448,
          -0.7115484928542044,
          0.009275019246251381,
          -0.041607105710112564,
          0.21971304493021307,
          -0.901664978832001,
          0.36758488619632684,
          0.005741756108717311,
          0.5735464028902496
        ],
        [
          0.7623681503678046,
          -0.1726312480656717,
          -0.022219621341081273,
          -0.7497675977301885,
          1.6447027400695002,
          0.6670459010690618,
          -0.22513568553077834,
          -0.23660354295522235,
          0.6869071585763848,
          -0.6864754710455113,
          -0.030638470754850627
        ],
        [
          -0.2732104113484923,
          -0.20745185966540494,
          0.24256256490689687,
          -0.27531714749495906,
          0.03546621786229466,
          -0.323534062046192,
          -0.24600202624480305,
          -0.3529834502906967,
          -0.22408002932981924,
          0.19667951216097065,
          0.23370609179633536
        ],
        [
          -0.010041433787011618,
          -1.421077502153382,
          1.0498976138647464,
          -1.014713915841122,
          0.70188702643864,
          -0.11593338561435476,
          0.5987250003026056,
          -0.421950430967317,
          0.17236662312319526,
          -0.6514983047272165,
          -0.3288528126337355
        ],
        [
          -0.23483680660612394,
          0.25186708166804067,
          1.2102410263582855,
          0.02562100046430522,
          -0.11735134684147484,
          -0.3306446796008039,
          0.5257312361902329,
          -0.036640401971701486,
          1.7272428065351104,
          -1.0839029119576455,
          0.2680775249262662
        ],
        [
          -0.264772273498599,
          0.3820916566116721,
          -0.4106512635376779,
          -0.3355628248814029,
          0.42160923266509903,
          0.09275213680351406,
          -0.5009233467725506,
          0.137091798734349,
          -0.634101454289153,
          -0.5398065298624571,
          -0.2348500161123912
        ],
        [
          0.6282339337543413,
          -0.1100931269539049,
          0.15875337661736455,
          0.15759539872683284,
          0.09284957098993413,
          0.935285242612056,
          0.24816126447798253,
          -0.20671609821720371,
          -1.6636737974547884,
          -0.7072953202759118,
          1.984113094893879
        ],
        [
          0.016446340660219848,
          -1.6660728548633141,
          -0.9117941112191322,
          0.31538697011142763,
          0.04656474155663487,
          -0.8098342646102065,
          -0.35350671447893867,
          -0.08657306218275194,
          1.183858257803703,
          0.9720461588876725,
          1.273511674817319
        ],
        [
          1.3385487112083585,
          0.2328393457620173,
          0.06523127935078984,
          -1.135070295858751,
          -0.5140105988651453,
          -0.8747054503470041,
          -1.35957246906256,
          0.27530409541289674,
          0.7168523683573762,
          -0.7544176048013754,
          -1.3885972252019703
        ],
        [
          -1.8238961436604917,
          0.42123300035807193,
          0.9068998516050641,
          -0.005676534415819455,
          -0.6319095408870927,
          -0.8925151585337394,
          -0.21073812548464135,
          -0.15320481866554417,
          -0.3164493874021725,
          0.1253489625379889,
          0.6754084801337722
        ],
        [
          0.4037473725666086,
          0.3633982969724732,
          -0.68972367351176,
          0.2735199430462087,
          0.6371884628529684,
          0.3638640565319058,
          1.1888284712984587,
          1.3825696957893554,
          -0.3661918957446444,
          -1.3021285135366887,
          -0.2323302100139184
        ],
        [
          0.4404268844849544,
          -0.5599424041595076,
          -0.9046637462157106,
          0.4710806814863433,
          -0.2215356936650435,
          -0.16646571702740082,
          -0.4950862848140381,
          0.08185438115105637,
          0.5846758383319985,
          -1.1639601796464647,
          -0.33015356278754615
        ],
        [
          -0.531182436908152,
          -0.7074094096243138,
          -0.14445423833786067,
          -0.02899582065120535,
          0.8521059597093071,
          -0.04178476533838998,
          0.3902431455067296,
          -0.17636648261275747,
          -0.43926367668171407,
          -1.4816477624299451,
          0.9025898486909778
        ]
      ],
      [
        [
          -0.39037750413974537,
          -0.13852026823250735,
          0.008895847512577203,
          0.5005740819573815,
          0.5907946543388118,
          -0.008090120481672035,
          0.04367799061940292,
          0.35675662358634247,
          0.026638633638131654,
          -0.5354916734046392,
          -0.03840421895950474,
          -0.0420569954349743,
          -0.008966339241942508,
          0.3102877040663544,
          -0.3059987571206299,
          -0.3665800964464774,
          -0.13413051085306757,
          0.25142367877077876,
          -0.12784958790598322,
          -0.13362567018361202,
          0.17821050075848494,
          -0.15035042810876223,
          -0.5647110039865818,
          -0.1742844272897297,
          -0.4648780887188452,
          -0.43323539002249567,
          0.6003155572202895,
          0.13207167466584913,
          0.2064225285546084,
          -0.012831944653464801,
          0.22916805412652155,
          0.7474581038817874
        ],
        [
          0.007683966082490279,
          -0.09274606132119129,
          -0.14133539060142175,
          0.44173372925517335,
          -0.17800127266655377,
          -0.23489420444402623,
          0.07800057894129298,
          -0.4025906044152412,
          0.08251420382866487,
          -0.15569719330824694,
          -0.18299397426516192,
          -0.07743317886132167,
          -0.03928096058793054,
          0.005537900822434161,
          -0.0025832307999189286,
          0.46423395824745683,
          -0.05057715907342196,
          -0.13759812961087842,
          -0.02433325913536656,
          -0.21161365795583964,
          -0.02767305902145141,
          0.10476766674486582,
          -0.15899795673100248,
          -0.6950980443969632,
          0.38081896065396303,
          -0.40289297873621455,
          -0.225059703268945,
          -0.31148256299113525,
          0.41878476830100375,
          -0.21971841019567206,
          0.2887826616479622,
          0.22057458986868178
        ],
        [
          0.023032566081839848,
          -0.023069817878291373,
          -0.042684256310449885,
          -0.037426247715028726,
          0.5517937752086336,
          0.2790664589425785,
          -0.07500544770524967,
          -1.1047117775741326,
          0.021726620535715946,
          -0.07530962008591312,
          -0.03281702719175231,
          -1.3108453527295638,
          0.3302060016657261,
          0.17990005489902233,
          0.27413749471144533,
          0.17861983132619708,
          0.2513436078809468,
          -0.1471758128442001,
          -0.07232179695174216,
          0.140477593243982,
          -0.2551407095747457,
          -0.36607778734633145,
          0.23495050119705252,
          0.5326383699450384,
          0.1639359023526989,
          0.572793347814542,
          0.1314687000967601,
          0.6316793738395019,
          0.09428655854446083,
          -0.2889864246783716,
          0.6159724629987261,
          0.19496012026353013
        ],
        [
          -0.034681892787814646,
          -0.3272673911217552,
          -0.28229666004247034,
          -0.45350854984015176,
          -0.21124591045414481,
          0.0007102966352926232,
          0.14774175209146936,
          -0.14937552884560806,
          -0.08838900003001356,
          -0.1995497302572804,
          0.11102245782401304,
          -0.10690530317444925,
          -0.16093399028752411,
          -0.24437004553023978,
          0.09280577006821988,
          -0.16674034065543258,
          -0.2873706120889982,
          -0.05178581603743047,
          -0.17993450627215624,
          -0.2223006037191068,
          0.47941619498947224,
          -0.19336429805487493,
          0.40654770434155457,
          -0.32750073868461055,
          0.45401058029413466,
          0.11671769668334576,
          -0.3294354152435633,
          -0.3008493166403975,
          0.046597852514170014,
          -0.3679652115201136,
          0.21087207088547147,
          -0.28575643040758236
        ],
        [
          0.794179969323984,
          -0.12230058837425727,
          0.37596861268943566,
          0.7956438329835016,
          0.3345944760823063,
          -0.1740141241971227,
          0.6224409730071144,
          -0.11331211293359496,
          0.12275448900033542,
          -1.215796803107455,
          -0.1828615671090626,
          -0.2926553743252578,
          -0.2193397221859047,
          -0.22197452002365375,
          -0.06066553988382524,
          0.00017942041116236537,
          -0.20926966654952536,
          0.6704876464779433,
          -0.1278586654108439,
          0.228746601957975,
          -0.6007134733996531,
          -0.014646816457236872,
          0.46169818535492313,
          0.4404305990980221,
          0.11910707556565404,
          0.11651502006508788,
          -0.38260589551264484,
          -0.41365631287356597,
          0.10409542823308664,
          -0.17278136234935423,
          -0.1045302073137905,
          0.32670033900921863
        ],
        [
          0.4508458459474474,
          0.1742345668704076,
          0.3569109493582855,
          0.1933019479796955,
          -0.928771827381574,
          0.12061365666125404,
          -0.27274071011338197,
          0.31373880940541604,
          -0.14695252018870533,
          -0.45066155108343786,
          0.04711155285127903,
          0.1929679225381286,
          -0.155515054361164,
          0.47302635842514773,
          0.24770669437820272,
          -0.041568327583706904,
          0.10655501672488008,
          0.264397734081237,
          0.2325271769991032,
          -0.11597060236866566,
          -0.2341506258580724,
          0.32012336081380394,
          -0.23578947252246485,
          -0.5671952324723373,
          -0.12814470748750825,
          -0.044186216220716924,
          0.4534917655914897,
          0.3946574965399796,
          0.5421277475044215,
          -0.7090446171812438,
          0.19603490241653632,
          -0.36009691279080724
        ],
        [
          -0.3594766958214906,
          -0.0770972378720378,
          -0.1354320546666729,
          -0.47049229087353095,
          0.04831272076000066,
          -0.030933306137012284,
          0.009841714582363164,
          -0.12036303697475827,
          -0.00602506953534399,
          0.16661446164191437,
          0.027845937240671137,
          -0.10426683231114074,
          0.5695817867611612,
          -0.22551103980487971,
          0.31829550958178077,
          0.15015495114283964,
          0.0597105469696763,
          -0.09745334152466543,
          0.19564083574184699,
          -0.2558150513735369,
          0.05632822871212773,
          0.20971821827639406,
          -0.12268625782873656,
          0.6577688373348414,
          0.09257300495459958,
          -0.8735767516411826,
          0.5801588394335946,
          -0.09513788217470197,
          -0.025564338195620165,
          -0.8523368409227655,
          -0.056729542583956974,
          -0.12358669152179831
        ],
        [
          -0.31209878853889517,
          0.047189621959786175,
          -0.6693034170499546,
          0.07313555686993983,
          -0.8389614491995003,
          -0.3824019622787135,
          0.20823470487240417,
          0.6737376325265841,
          -0.12723251483288986,
          0.5680315376167671,
          0.18993096209869337,
          -0.6540905813131462,
          0.6411614501710132,
          -0.07917575837457864,
          0.26846712252304994,
          -0.028060392121039078,
          -0.3503185198149583,
          0.08323734925091984,
          -0.4182451281252361,
          -0.04604219829818166,
          -0.22676122961378042,
          0.2438018860267184,
          -0.03397878093815283,
          -0.1031435297387598,
          -0.08366771845830955,
          0.36341228893385785,
          -0.25066589587534177,
          -0.19916451203786012,
          -0.21784790623747002,
          -0.14812397958853823,
          -0.34975489194548853,
          -0.1960125435496522
        ],
        [
          -0.9409171729685707,
          -0.08288820302279498,
          0.984425806076116,
          0.22426631450378395,
          -0.7772091954836569,
          -0.060696197593283326,
          0.36624863222011533,
          0.03146822148192544,
          0.35725622723503697,
          0.49538562512794904,
          0.38208301758837115,
          0.20220121665481314,
          0.33770058016165216,
          0.4559763320627961,
          0.023427848550681807,
          0.1603315891558546,
          0.321365510312455,
          -0.04290691345446779,
          0.476148051588042,
          0.7422597281359693,
          0.30843127794809555,
          0.27877772647231364,
          -0.1933313217942234,
          0.5612572562019984,
          -0.011158249784495311,
          0.5412881217509494,
          0.06296945798899728,
          -0.22614784508860158,
          -0.04838459173895054,
          -0.9678120141395637,
          -0.0030115168479361723,
          -0.02200234336878092
        ],
        [
          -0.22257700041996367,
          0.17859360941773036,
          0.49270334904750357,
          -0.3050405262305216,
          0.4646179607967177,
          -0.12375233190397145,
          0.734140250132334,
          0.676599667890737,
          -0.0849143392699764,
          0.10456943592473024,
          0.018026796620400812,
          -0.08357324050195156,
          -0.17642779981138695,
          0.1917801094639066,
          0.0606191893608846,
          0.23534886108772402,
          -0.17942929611317057,
          -0.03683258080794345,
          -0.37617859416498617,
          0.06665671770684914,
          -0.4076565863366023,
          -0.022104804975930044,
          0.3903483332084857,
          -0.23632399327719164,
          -0.5341298510625836,
          0.4468252035437973,
          0.9873902922751507,
          -0.6827289817918434,
          -0.2550737284899912,
          0.5251459759637142,
          -0.0893070504391547,
          -0.09621791877178552
        ],
        [
          0.18145547435356466,
          0.2122664092293746,
          -0.30054430084734163,
          -0.34809024616782624,
          0.036624030692735975,
          -0.19648294419780216,
          -0.761632172022203,
          0.9787077055921255,
          0.8542748065954051,
          -0.5322466368001717,
          0.5920927127973624,
          0.6790006060057535,
          0.5438363992274294,
          -0.0183310268643454,
          0.026915161166038995,
          -0.35979853488966385,
          -0.07910232398928198,
          -0.27542092772804044,
          0.14716353201806737,
          0.19139879984355618,
          0.06655570157148251,
          0.046841933467871,
          -0.10025665745455851,
          -0.5244216979939976,
          -0.047945461367664866,
          -0.6116542615350485,
          0.45099545502949934,
          0.46315804338546884,
          -0.5035466129728294,
          -0.14787211126905103,
          0.13979316333819902,
          -0.2689224992692522
        ],
        [
          0.13799559791156654,
          0.4067160739690516,
          0.5204472161300815,
          -0.866939596803155,
          -0.25738078543285703,
          -0.23496011853503704,
          0.1539036451453523,
          -0.36881334976867375,
          -0.5255722223236361,
          0.5913147338645774,
          -0.3403744036771597,
          0.4990493218046632,
          0.561360890245648,
          -0.37286320755408525,
          -0.44012316761496106,
          -0.20550002143917923,
          -0.13561723209160206,
          -0.24555942584849924,
          -0.5274575147471731,
          0.5019665791994633,
          0.06872550998127619,
          -0.05291459539432442,
          0.34876110231080815,
          0.37326012082675686,
          -0.03547369437048004,
          -0.23395769547059234,
          0.6482621913469477,
          0.09969868004573113,
          -0.9018723957788657,
          -0.4772168881409303,
          -0.2766605761507485,
          -0.552743414486412
        ],
        [
          -0.12566228576803734,
          0.24484965211314572,
          -0.47882842587496766,
          -0.32451381091529147,
          -0.1778666057965066,
          -0.276937270005212,
          1.259179887875539,
          -0.1521344243569785,
          0.010115969690020427,
          0.8672423315747857,
          -0.4071146344107452,
          0.6841620485757255,
          0.49361181755951267,
          0.21566424100340767,
          0.01754149869751272,
          -0.05710557877420135,
          0.23311594418284887,
          0.22467999517142148,
          0.22169280319711412,
          -0.4866381791546111,
          -0.5407773792723434,
          0.10908878825085473,
          0.2708286005120565,
          0.4894015611811084,
          0.35873974338652015,
          0.3590052907757139,
          -0.03390210992395181,
          -0.4882942065661241,
          -0.260257379167236,
          -0.815058023547695,
          0.13982038872189084,
          -0.08040890752929412
        ],
        [
          0.20426738860443602,
          0.02817656266697742,
          0.4673315968404552,
          -0.00495007347316733,
          -0.895383666208653,
          0.3178001176463605,
          0.1300876833643262,
          0.41526195150717543,
          0.5184419813790617,
          -0.6551184879578122,
          0.7456503297573704,
          0.3566226791215443,
          -0.037882115407529,
          0.30239460803090845,
          0.24602366709329632,
          -0.11926482795933628,
          -0.04355140209940316,
          -0.1606815763726811,
          -0.43564488104991417,
          0.13106593054939222,
          0.013593055314314921,
          0.21014264528813828,
          -0.33211041076219505,
          -0.654965382189051,
          -0.16589297669376163,
          0.4507102630988947,
          -0.43787349639305895,
          0.049747384246621534,
          0.049439036752864964,
          0.18301311355402544,
          -0.341096260058152,
          -0.9272675093288419
        ],
        [
          -0.4385063622008551,
          -0.14532593040717987,
          -0.14068017746921901,
          0.9261157026377627,
          -0.7921201923303669,
          0.1590924838540744,
          -0.09200502787899043,
          -0.16252720549361394,
          0.24823563344201333,
          0.7795299111516061,
          0.017836272198867187,
          -0.3782139697778677,
          0.36433878975217043,
          0.0052995535773041474,
          -0.27370501606289266,
          0.041773545138727254,
          -0.2627916067368074,
          -0.37320211503939976,
          0.020095677261292036,
          -0.24890072402291008,
          0.5437860207527577,
          0.022659518106121476,
          0.5645434689682072,
          0.24115683437633784,
          -0.25474741945704094,
          -0.9355308788982922,
          0.6817750455916698,
          0.24550899553005345,
          0.05535345664906268,
          -0.05538398454824034,
          0.21167793416690822,
          0.11058914380260557
        ],
        [
          -0.19965185036196742,
          0.09036480739678615,
          -0.26450566015427374,
          0.2782853150321241,
          0.42822994426605504,
          -0.08235536602094001,
          0.09984078736409956,
          -0.04804851515841278,
          -0.011493174577975973,
          -0.0014453507380320968,
          0.4857811512683991,
          0.029259587072663778,
          0.05287611144849804,
          -0.20885224425242224,
          0.2648151299267988,
          -0.07183591850174192,
          -0.06564578702030532,
          0.02928376487561159,
          0.09942435212318064,
          -0.07818102605518379,
          -0.3337831170270671,
          -0.015166381241425978,
          0.41629750241605257,
          -0.036444367264059176,
          0.1257440728723824,
          -0.3700317402756855,
          0.18749729024725983,
          -0.24863856996569722,
          0.09163465840758186,
          -0.896449036251592,
          0.03535727455703735,
          -0.09055577557484165
        ],
        [
          0.29518209428429715,
          0.4516939715414585,
          0.16179447548368178,
          -1.2345731443231154,
          0.5220376792535014,
          -0.061806284857453986,
          -0.17507989460186552,
          0.3809012474847334,
          0.21397443706888603,
          -0.01993913857947962,
          -0.2261807521574231,
          0.2901022681661941,
          -0.3633662891797227,
          -0.07283910317175962,
          -0.3570912654888275,
          -0.14157631865607542,
          -0.019616109715263574,
          -0.02518395566005158,
          0.29915875389886293,
          0.6099309320537339,
          0.5565129438613845,
          0.10487787999781024,
          -0.6183937689142431,
          0.03839839220956836,
          0.1694243287681771,
          -0.8928210769534131,
          -0.5260913504200094,
          0.09371189468162518,
          -0.05474478655143486,
          0.6538427450442519,
          0.0029871048134018975,
          0.41224461829676107
        ],
        [
          0.45388414671525024,
          -0.4221897534060576,
          -0.5540203414099943,
          0.6106912477006419,
          -0.08014657836294521,
          -0.2576559609969701,
          0.23245906882360534,
          -0.48292187982922197,
          -0.2495088277693927,
          -0.16412285502912033,
          0.006826018163493882,
          0.08082516090210938,
          -0.6543134662921783,
          0.2939966991794425,
          -0.10292896815075182,
          -0.3279154389134252,
          -0.048823476674867916,
          -0.0207991209112823,
          -0.16270712422164893,
          -0.2663231386362173,
          -0.5860311866354818,
          0.13143167512843437,
          -0.5492622995952213,
          -0.009865017856146992,
          -0.19214589938948887,
          0.17099741659679746,
          0.7311596230658614,
          -0.4866390973473947,
          0.5535895464767155,
          0.0050367060574312535,
          -0.20388797411193293,
          -0.17822584883594467
        ],
        [
          0.30328139976596435,
          0.13089888545499972,
          -0.4512742340439875,
          0.3628195612187187,
          -0.265548241974866,
          -0.43997093510017615,
          -0.47933576734607364,
          0.084438850706514,
          -0.23749632214980396,
          0.21930329173150545,
          0.02882247039054022,
          -0.44819185929741073,
          -0.3395804299911333,
          0.025028339257934573,
          -0.4379249652795937,
          0.1768161724465019,
          -0.2842502456072149,
          0.1364328552629391,
          0.43912195867822773,
          -0.2082497132149666,
          0.3499041082688925,
          -0.3708897327771033,
          0.018351740195943565,
          -0.4100125522255752,
          -0.112668573867363,
          0.3955019938044939,
          0.5290753027702786,
          -0.210248062282266,
          0.02439244524031558,
          0.23218429009340644,
          -0.053773664690117955,
          0.36704180007710974
        ],
        [
          -0.21451084128821993,
          0.051935996047323796,
          0.04243766602894924,
          -0.0582930666880965,
          -0.055388858882600284,
          0.07735702949667848,
          -0.5581934916488086,
          -0.06498369970609481,
          -0.5243432159566853,
          0.07020055667311961,
          -0.38214760351452626,
          -0.4464169855910505,
          -0.06606562411363678,
          -0.1269899800665199,
          -0.3500598665051535,
          -0.30060062998553894,
          -0.01426218176763605,
          0.2074743588044081,
          0.0611834581825654,
          0.31768111004796545,
          -0.2612386507484235,
          0.4977974246765008,
          0.171052230977881,
          -0.4516155294835305,
          -0.0002826341888340633,
          -0.09005510841938659,
          0.17289334825013233,
          -0.3694955412795298,
          0.3963479947245668,
          0.21081514436749343,
          -0.10375303571324485,
          0.09467918637367355
        ],
        [
          -0.35775798273475273,
          0.3224539051213776,
          0.1291122259538436,
          0.6498089242912998,
          0.43649176777482,
          0.04697627038721819,
          0.37348751310359146,
          -0.2956494703083346,
          -0.10049492379434151,
          -0.18644290571316485,
          -0.2002402907463265,
          0.585984925527184,
          -0.6700105075599213,
          0.40057863896914925,
          0.015395730858168163,
          -0.14267400823335027,
          -0.1278362168733528,
          -0.37839668966185863,
          0.13844915300169353,
          -0.166030719208846,
          -0.1396779081702419,
          -0.15142548965944042,
          -0.029662388545219215,
          0.04988170636563844,
          0.44923188697132216,
          -0.2732985222996685,
          -0.2726435200999302,
          0.5105599941096208,
          -0.41150244978429573,
          0.1361414855074704,
          -0.01619692907273798,
          -0.11051582565190199
        ],
        [
          -0.19422306014608004,
          0.0566900849272022,
          -1.0986242468291154,
          0.06903530093818847,
          -0.8870099544604457,
          -0.2622646892594355,
          0.11784835339235934,
          -0.4403427911729212,
          0.19876147111916526,
          -0.22096616588743262,
          -0.20767803332603774,
          0.5326376642962689,
          -0.23957052146092414,
          -0.16681274733669135,
          0.5772770424089894,
          0.3003251290468814,
          0.051463744564885956,
          0.07773928223831043,
          -0.2712855251392529,
          0.35392009671341396,
          0.028865032163793138,
          0.011043653032604095,
          0.3958767767621823,
          -0.5186377053770611,
          -0.1868663311860015,
          -0.7515730981293438,
          0.1392587674938133,
          0.0007936164039059814,
          0.6863243096133202,
          0.5486458100994476,
          0.1650289210538866,
          -0.1924093338044987
        ],
        [
          -0.09346668913834114,
          -0.23501158959841498,
          -0.12747478636115864,
          0.7476673942480863,
          0.11610382126895544,
          -0.2659590837266237,
          0.48989009311309156,
          0.07047694432375519,
          -0.8356538300947356,
          -0.1470199977366801,
          0.24506163959130672,
          -0.08309882780222155,
          0.437749550269798,
          -0.22814520334929883,
          0.10700219566600694,
          -0.1718962094409071,
          0.14389395100230723,
          -0.13954802770249308,
          0.11408806815648835,
          -0.29162739045985403,
          0.005067722887363166,
          0.11109425309690327,
          -0.4042860523955655,
          0.478763573148337,
          0.1906130887909399,
          -0.07217608074792785,
          0.13244220966755865,
          0.7127765684022396,
          0.002742576319181574,
          0.41440220979488246,
          0.19617562748534076,
          0.3255181653707245
        ],
        [
          -0.6502114216143297,
          -0.0957466120457795,
          -0.7815256894596944,
          0.5435891335349272,
          0.1592529651340142,
          0.13214642822092593,
          0.14083006945773752,
          0.01611175077663794,
          -0.07999973351048785,
          0.04924621654218277,
          -0.10015518937894677,
          0.21308942264098518,
          0.11952362052516546,
          -0.3456942928487565,
          0.019184879913791555,
          -0.059149032322149894,
          0.25850844353294317,
          0.49375839593295323,
          0.06714541523422884,
          0.6087071132527178,
          -0.4396980524611507,
          -0.03165778338823208,
          0.42455420964789903,
          -0.030609147131025503,
          0.4050873879870436,
          0.6671316565213161,
          0.5336775345528261,
          -1.2424307719855663,
          0.2651913514078253,
          -0.5326533372854556,
          -0.07528755177950243,
          0.15911956311762873
        ],
        [
          0.47218585117415923,
          0.03816021241308841,
          -0.3313631713710853,
          0.03838761456234037,
          0.323593391296458,
          -0.13042876206230555,
          -0.581305633635939,
          -0.8604811132275638,
          0.3235193166460102,
          0.06161541067592143,
          0.47198891271115884,
          0.14092665086981168,
          0.1189605845017941,
          -0.09822558424130719,
          -0.31242764847725746,
          0.01693038604702768,
          0.07772632162131286,
          0.025397721601537804,
          -0.16900519379108844,
          -0.7293508581850892,
          0.06911181038768827,
          -0.43781754392730937,
          0.6285305976270923,
          -0.27259723977710437,
          0.030046185335564288,
          0.3554406820833467,
          -0.28955154116636106,
          -0.24195740756786815,
          -0.1180511632243668,
          0.38232134590586025,
          0.3668822112316652,
          0.08990825648474551
        ],
        [
          0.002196824165571652,
          -0.2688616937856809,
          0.33377445705656267,
          0.31281479726949235,
          -0.1216609628034199,
          0.0823568530485326,
          0.10180972638007806,
          0.05792596027312956,
          -0.03637263182964022,
          0.7262425807812645,
          -0.08088091273033235,
          -0.07018585724593766,
          0.013080457018905487,
          0.4755456020662141,
          0.0621084381321195,
          0.526391773606385,
          0.036083078344172625,
          -0.18423478187281284,
          -0.237389053758628,
          -0.09186028008582804,
          -0.5836826187938186,
          0.24124991721351519,
          0.5479513155949081,
          -0.6599322296431738,
          -0.013939597155088301,
          -0.2985311300906756,
          -0.4875638415950547,
          0.2182904537559648,
          0.2750964829273097,
          -0.45335726912488544,
          -0.0015532356981040594,
          0.009794217034269186
        ],
        [
          -0.522400305209193,
          -0.11751083917711046,
          0.34250028308837177,
          0.35376177501562306,
          0.7654783738798457,
          -0.031162000115479635,
          -0.49652629630015765,
          -0.1435273993370169,
          -0.019671973502446465,
          0.29070101069675003,
          0.3180031870829934,
          -0.47390964815638253,
          -0.18262482528211482,
          0.3851259443769988,
          0.10786166692450391,
          -0.2491003370287681,
          0.11413299940611957,
          0.09607148874746915,
          -0.05045673538047705,
          -0.22725571627539026,
          0.5093930618316321,
          -0.19065093366617256,
          0.8439300688459928,
          0.20885131992454142,
          -0.35169267002239385,
          -1.0104256962666107,
          -0.4665821279048584,
          -0.16698750702907725,
          -0.5721448916321404,
          0.47954489796723065,
          0.15663513069615193,
          0.211866782324297
        ],
        [
          0.01284439923072793,
          0.5357928713773544,
          -0.12643450046311533,
          0.05822604247937472,
          0.03096785003744562,
          0.06326993539710782,
          0.1622098000465084,
          -0.4067062768257545,
          -0.03824432117994029,
          -0.05821011310321561,
          0.2654168454227862,
          -0.30980809160418066,
          0.12626589288135953,
          -0.2146076677860366,
          0.01117345224075951,
          0.1236388207173594,
          0.6144612608010999,
          0.022857813383340354,
          0.004892519432348817,
          -0.24195168710531095,
          -0.0592591323898336,
          -0.03630572420908623,
          0.1364014048332668,
          -0.18386983939319995,
          0.1949384946387323,
          -0.10975539769149088,
          -0.4499038455182249,
          -0.3181508266567998,
          0.1828438835043238,
          -0.10149043038141899,
          -0.23711391920274713,
          -0.06038580462983611
        ],
        [
          -0.09833508815269126,
          -0.2359093719358476,
          -0.5482424384479141,
          0.6418363673590832,
          -0.7629976854689888,
          0.17575335018069668,
          -0.2715079214530499,
          1.155139932466173,
          0.28815628923364156,
          0.6439837447073646,
          -0.11965288982296997,
          0.48954906039037627,
          -0.3221422677339254,
          0.005404354538175865,
          0.0037841735092340916,
          -0.2326697071084028,
          0.2719583430279704,
          -0.571861003032466,
          -0.012400101444858263,
          -0.10485273306130326,
          -0.2940922008775935,
          0.13347444949913223,
          -0.03555618156492431,
          -0.6879106824941589,
          0.12233806517055093,
          -0.15559547659764641,
          0.569985822727971,
          -0.08857415362687449,
          0.17408140909577866,
          0.3006673850789823,
          0.009116440981560994,
          -0.1796004624459175
        ],
        [
          -0.22350400479601348,
          0.1440977824422246,
          -0.22567013435481958,
          -0.22358147030848177,
          -0.13658378137045948,
          0.28400534021675206,
          -0.3282721877003195,
          -0.2822625702800666,
          0.6324734294286976,
          0.12351362032797433,
          -0.28895374639537114,
          -0.19794041457958658,
          0.13878811727020848,
          0.02936176340654774,
          -0.022014031646477722,
          -0.4564489908062408,
          0.405981545029083,
          -0.33218533714748444,
          0.02488987086559403,
          -0.09117627963145142,
          -0.20266497526711838,
          0.37899829237555577,
          -0.1742082124867715,
          0.1538447523032371,
          -0.4254454267678045,
          0.31555481676948266,
          -0.5066207845936554,
          -0.3237440260619508,
          -0.007543386062819502,
          0.47149826661751115,
          -0.15820301144877572,
          -0.155662240984175
        ],
        [
          0.5018814843006143,
          -0.4010388348299825,
          -0.21159999389977896,
          -0.13323791141166005,
          -0.14768786805121095,
          -0.15721370365809598,
          -0.05137599951910081,
          0.6532930944973209,
          0.704927137324005,
          -0.31735606936236804,
          0.05018767891921497,
          -1.5485535678714046,
          -0.22078643944266915,
          0.05597725014783955,
          -0.04378541030919643,
          -0.276601064153812,
          0.19247751538450308,
          0.01357004156224729,
          0.17079724417115658,
          0.2727170458369746,
          -0.10873939539276371,
          0.371893068734676,
          0.06530816347477959,
          0.6912880543324404,
          0.26643221463134914,
          -0.5999859640837187,
          0.07300569136545884,
          -0.5948205635251779,
          -0.10272102191890319,
          0.3770479084775157,
          -0.620100933555144,
          -0.36048041560454797
        ],
        [
          -0.24040742303851367,
          0.1329669908544142,
          -0.006772944257936709,
          -0.03844361730312785,
          -0.643397297471977,
          0.055110890297647284,
          0.2079155709387165,
          0.17601020002362858,
          0.5522348644616046,
          -0.036219395367996225,
          -0.3778309162046901,
          -0.23472452225746934,
          -0.2100427818855861,
          0.1880177225303452,
          -0.44672513838615074,
          0.22512049085080757,
          0.0015573996364796616,
          0.06307179149481415,
          -0.3693197561396093,
          -0.40536128703233243,
          0.24840787489795094,
          -0.1658246068673451,
          0.1910376111244935,
          -0.28125023720090103,
          -0.1909906120297558,
          0.46884860641873843,
          0.21825775949539378,
          -0.11274979177995292,
          -0.09332246158123189,
          -0.20841545741109235,
          -0.17878697918595093,
          -0.22613163226988156
        ]
      ],
      [
        [
          0.20106242319302114,
          -0.05061446541867748,
          -0.6194417834068818,
          -0.41118055650897806,
          -0.5673268497481583,
          -0.6100948569753644,
          -0.11501751067955628,
          -0.7507035472709441,
          0.174298097278842,
          -0.2520948761736349,
          0.3500124929288639,
          -0.13635386935610094,
          0.14227431047390915,
          0.7184587307476006,
          -0.45435703752112366,
          -0.26305470796249103,
          -0.8423278876292284,
          0.5751712616561943,
          -0.11523653732233607,
          0.24613162945752612,
          -0.27000579886381887,
          0.14406345035618476,
          -0.23036136831332218,
          0.4281810770419428,
          -0.32594467031662716,
          -0.24956066848810265,
          0.35734548487908135,
          0.012385361866337763,
          0.07966662273987357,
          -0.37418576054463026,
          0.17961397014228828,
          0.30323890568176587
        ],
        [
          0.273880148056676,
          -0.15600857640496157,
          -0.06377617902403646,
          0.045083771132173114,
          -0.8102800935211757,
          -0.5878650508041188,
          -0.06638058316967203,
          -0.3383824430253357,
          -0.2520302176156339,
          -0.9546463738206167,
          0.7604356966399878,
          -0.19264288964646598,
          -0.45662319603642626,
          0.16768974954869031,
          0.41217580495693257,
          -0.11244868333434088,
          -0.13971578461772113,
          -0.53110934955213,
          0.11991030817221135,
          0.7033120114806157,
          0.008436606479716302,
          -0.4002676542865897,
          0.31459628082431096,
          0.5435704963788442,
          0.2715017243031646,
          0.35934155423530034,
          -0.27846917122192993,
          0.0398291206936765,
          0.1950129092992552,
          -0.11392318710216041,
          0.4194355620712541,
          0.156440175543982
        ],
        [
          0.11211812813753477,
          0.0913838273088031,
          0.4836567095565513,
          -0.049654554577896526,
          -0.6479302568019519,
          0.18679243907925866,
          0.09922265037920124,
          0.375602678145893,
          -0.14795306391059926,
          0.055205517230950706,
          0.1467141964448358,
          -0.4266325353647252,
          0.6025699539206206,
          -0.06866548934848747,
          -0.059460782610149754,
          -0.014865790864917313,
          0.13035707823791937,
          0.1172394772481701,
          0.18292645777305705,
          0.04506596558772082,
          -0.07703362824074131,
          0.23662624996849457,
          0.46716608488567857,
          0.1555273893350257,
          0.34279019862563537,
          -0.1063976797406501,
          -0.20598215988982735,
          0.03222114346016563,
          0.6603427167840312,
          -0.1192988008162343,
          -0.22273234636819933,
          0.11574921007962478
        ],
        [
          -0.37501511532508564,
          0.6016481429310068,
          -0.030096726575740924,
          0.1581372761862368,
          -0.36876826414660935,
          0.018383227269840114,
          -0.041659325146698234,
          0.1848510795584737,
          0.3432734542895878,
          -0.49542314068113036,
          0.5333164381935508,
          -0.11582225897036745,
          -0.28288367837506123,
          0.28122434163697974,
          -0.4121127910442949,
          -0.013002045944852016,
          0.4565148615111225,
          -0.15790499126734756,
          0.21111681306304306,
          -0.2740249799265737,
          0.14663497683950488,
          -0.3933063809336015,
          -0.1348866709066954,
          -0.29207250543769975,
          0.32359006318364925,
          -0.15683184863831218,
          -0.49855339269294924,
          -0.15212067745614274,
          -0.6815543790128771,
          -0.1760805028928176,
          0.21341248978719748,
          0.09403409042160817
        ],
        [
          0.008574617125731853,
          0.24229272099704136,
          -0.12312809770741968,
          -0.2278007391638028,
          -0.29942121636257524,
          0.10481109457640997,
          -0.2864185273834746,
          0.06469685370621522,
          -0.3181528218314904,
          -0.2550193560953538,
          -0.27847442603649375,
          -0.08473422760393769,
          0.0422992967972351,
          -0.0656292866455235,
          0.22913388562778766,
          0.15404822779984267,
          -0.12145776154937173,
          0.1580197475860448,
          -0.19674346082720823,
          0.056327684177670506,
          -0.19437154414552404,
          -0.3155764344026568,
          0.018712141731676245,
          0.44970533223742315,
          0.3611151619905286,
          0.274869808868586,
          0.020057772232738674,
          -0.06422669695627103,
          -0.39742409538198614,
          -0.6544293606329593,
          -0.22704461261259729,
          -0.2234328010826335
        ],
        [
          -0.03284762910381171,
          0.0503266234898254,
          -0.2941072792227767,
          0.008747631433062193,
          0.24384461348199699,
          -0.048171500828276335,
          -0.3482472282415491,
          0.12518171639594308,
          0.07748414605369204,
          -0.6405318012733109,
          -0.26051869193521393,
          -0.3269407654403136,
          0.1556731847244085,
          -0.9547152679579092,
          0.33294540470782824,
          -0.20501444693410636,
          -0.04811191623801426,
          0.08996023728899762,
          0.39748505792208066,
          -0.40997682271105085,
          -0.20396857259875859,
          -0.08161149399134139,
          -0.11213064788546362,
          -0.06289031598826092,
          0.6982404147186412,
          -0.2930404801633666,
          0.39764606054031165,
          0.2014228228512673,
          0.6507439302121575,
          0.005537289308285781,
          -0.13404387143473592,
          -0.22410124411481894
        ],
        [
          0.5118364831958124,
          0.22718630469851486,
          -0.8027582052507527,
          0.10074491430154697,
          -0.42690159130965893,
          -0.05441838123511603,
          0.4292948579181196,
          0.2617117391764176,
          -0.6613605661009321,
          -0.4477178756462523,
          -0.2925625431191143,
          -0.25359972857421964,
          -0.023223123992566413,
          -0.7812508625114641,
          0.6203084825635509,
          0.5158022470334278,
          -0.0979755151159248,
          0.48286917281166847,
          -0.22233813245582143,
          -0.12745232426099196,
          0.5785831579346786,
          -0.29757020628546965,
          0.4920215317227769,
          -0.2850406041968776,
          -0.13189966748331403,
          0.22253510569802018,
          -0.2890235440809558,
          0.23162989375289253,
          0.13337042840847757,
          0.15716843716508866,
          -0.272516240975069,
          0.11478759524755475
        ],
        [
          -0.08990599321523385,
          -0.12755958600605308,
          -0.6595000174573359,
          0.2995740577793715,
          0.17354861111548722,
          -0.6580821128674857,
          0.15682182660636323,
          -0.1763343816130788,
          -0.20450951271812312,
          0.24020440358425235,
          0.2907426196445548,
          0.4626377542364674,
          0.10533842176825156,
          -0.0967695754531623,
          -0.1225536445646426,
          -0.35727287621476667,
          -0.6110539929918191,
          0.18406358950744503,
          0.3651916878925715,
          -0.34714354010071957,
          0.4787518292381922,
          0.053085619436377136,
          -0.7036587131261872,
          0.11989515049470383,
          0.42484816511397294,
          -0.01942095099215759,
          0.006646686227566849,
          -0.3126154991766253,
          -0.012081589894258794,
          0.4110869450599082,
          -0.4710762725311885,
          -0.12074824451046907
        ],
        [
          0.00302102659416796,
          0.03906728859225697,
          0.37025313558512524,
          -0.09215168638156702,
          0.2948080178646186,
          0.16757561332363183,
          -0.5000677923458754,
          0.2608973369832549,
          -0.6993259214462125,
          -0.583650635344042,
          -0.9107685915968068,
          -0.12711180313512976,
          -0.23824105131724738,
          0.5267302441449553,
          0.18462229836549726,
          0.07646425184780493,
          0.020044226050289337,
          0.14784670458543117,
          0.15960398036680454,
          -0.09295656837402436,
          0.02062318810567141,
          0.17771990424943346,
          -0.03951568594731576,
          0.527498991622331,
          0.006869029095172993,
          -0.35057440648369553,
          -0.8203718129280385,
          -0.16845053990011705,
          0.5638464036832849,
          0.2105219208772614,
          -0.08168399177366596,
          0.13368697276965774
        ],
        [
          -0.1477506122680991,
          -0.3557429040979823,
          -0.21619146425958147,
          -0.06677493418851554,
          -0.6929922804314623,
          -0.02026627540706051,
          -0.1679387286830284,
          0.4258234443492761,
          -0.15400754322181995,
          -0.3315006369753915,
          0.3607412162155529,
          -0.5846180300927047,
          -0.42625323906120893,
          -0.3289348270205614,
          -1.069007869455204,
          0.045852584266263166,
          -0.02471577676699527,
          -0.2538025799287919,
          -0.01952049253777492,
          0.4131706732562764,
          0.21251739184871246,
          -0.09787119118413813,
          0.2216379592235974,
          0.05500712709555087,
          0.1912726597511832,
          -0.17884947615480265,
          0.06529991262951028,
          -0.31232160316871704,
          0.4156109961508381,
          0.22107105453385095,
          0.6959748489174191,
          -0.3571000287784352
        ],
        [
          -0.28830587916918443,
          0.03193263463973932,
          0.31463397725728504,
          0.28917645898503563,
          -0.38624848587641536,
          0.1771124964005303,
          0.6010762932855414,
          -0.036157196350205874,
          -0.028419737488265016,
          -0.4200620399798911,
          -0.08437985848883535,
          0.3438087293461781,
          0.10090275648516692,
          -0.5852582916655583,
          0.24745958622642752,
          -0.148183599606816,
          0.20722266916373058,
          0.13515426872643813,
          -0.0026984319861650496,
          0.3299357997762688,
          -0.4583593290738477,
          -0.16924167570067072,
          0.030008088000593187,
          -0.20251156011444923,
          -0.325264299201235,
          0.21423891999290673,
          0.21216742911729558,
          -0.13739832933926394,
          -0.021884631726224353,
          0.12773254822014635,
          -0.01858801692991765,
          -0.1184405132407276
        ],
        [
          -0.3788734779395331,
          -0.2741449684490826,
          -0.15792152377923996,
          -0.20539611589790674,
          -0.2914945678635858,
          0.3712380422544085,
          0.2548427382708752,
          -0.034314036612557615,
          -0.7137368220720496,
          -0.609880514155157,
          0.021027958378654885,
          0.42117884133810024,
          -0.9868055825386352,
          -0.3948623418242406,
          -0.5987058494638658,
          0.2903048182480132,
          -0.19799671886790277,
          0.10350649898053794,
          0.24081676250147174,
          -0.013271784514703979,
          0.0015723291519742651,
          0.5829868515371798,
          0.0011246978652385883,
          -0.10141872987543153,
          0.008909524739323093,
          -0.17934745533220717,
          -0.001167120482319347,
          -0.02548079384001778,
          -0.5251408086400199,
          0.47921140066343143,
          0.14424639069011871,
          0.2656562839103477
        ],
        [
          0.2703756490849482,
          -0.14963876068643078,
          0.3431670728761696,
          -0.006751812014761698,
          -0.45421156087430214,
          0.659604800597515,
          -0.03163274036995379,
          0.055089672924610464,
          0.26010452855275346,
          0.5254641226796135,
          0.08222928699087391,
          -0.09457762043455038,
          0.09782607245934542,
          -0.06792596491322153,
          0.2563953978938075,
          -0.09102338520150294,
          -0.4780915328753304,
          0.1275692223068952,
          -0.5265377580504725,
          0.4096988108981543,
          0.42519635184217275,
          0.4565463411561456,
          0.2127501490218997,
          -0.2479803420464406,
          0.296320842002884,
          0.16019945549604736,
          -0.5188124153768582,
          0.16748588606198306,
          -0.42915271032196417,
          0.18818081616408713,
          -0.3637984322297412,
          -0.006343991184793958
        ],
        [
          0.3540972803351967,
          -0.27997672093748494,
          -0.1848799811568985,
          -0.17278228673422755,
          -0.4196673632579852,
          0.10560487173536362,
          -0.3339450149309009,
          0.7852642184463419,
          -1.1987729540333627,
          -0.4963402241415247,
          -0.4133671374023383,
          -0.21769317541699038,
          0.508898594195664,
          -0.04634481953477524,
          0.34390355293405234,
          0.283498195310373,
          -0.8839801870333254,
          -0.5660904626201219,
          -0.1924020716589726,
          0.08911893720771263,
          0.4386665779154846,
          -0.16565821841390968,
          0.695802548224722,
          -0.5987847758168076,
          0.09973322866264388,
          0.06398263475826438,
          0.2653670144326882,
          -0.005081750291226766,
          -0.4114215331639807,
          -0.21865477890156593,
          -0.5787820076955589,
          0.03800704709691844
        ],
        [
          0.19784469698062676,
          0.1587818151934362,
          -0.3623984993870142,
          0.3145369029191345,
          -0.07765269236950488,
          -0.09893903063100386,
          0.3805010162922036,
          0.2925682698872837,
          -0.25381937785565145,
          0.12830006309283754,
          0.0864720140055073,
          0.5559649068929033,
          -0.07717176811734765,
          0.5542338065155346,
          0.008147985030923394,
          0.031050038761556528,
          -0.47974000827755914,
          -0.404215419509471,
          0.14559386156700252,
          -0.2903756365533437,
          0.6325039761274921,
          -1.0985715047895313,
          0.15252894259727967,
          -0.7018646403688547,
          0.2831127586300406,
          0.19545201048092148,
          0.40540782800897096,
          -0.39053322679519176,
          -0.059037368609524965,
          -0.3965976534660713,
          -0.08665241111309603,
          0.12947282940350746
        ],
        [
          -0.5044144641732333,
          -0.22442090199938933,
          -0.44642344149980806,
          -0.036083429543713116,
          0.28692405098227985,
          0.15550423023978166,
          -0.1563777675934677,
          -0.153994853568131,
          -0.06830538322585829,
          0.04980035114062969,
          -0.5857572368433607,
          -0.0029907829246751147,
          0.43065715876184824,
          -0.0194877547369417,
          0.010023778719098658,
          0.2200240354638191,
          0.30698356884787054,
          0.02806966530441494,
          0.04679877333794745,
          -0.270642708477399,
          -0.1091472722248112,
          -0.12638632278098824,
          -0.25356114924599416,
          -0.001854042053416611,
          0.09810600798403908,
          -0.0684678013406129,
          -0.7981868855863246,
          -0.09566729103631363,
          -0.10339418116559555,
          0.0419253201836488,
          -0.14446063290345967,
          0.039461178524218606
        ],
        [
          -0.6830998543837017,
          0.022663596937253408,
          0.003135621540085721,
          -0.21840062246328296,
          -0.6113194926349711,
          0.34099437894548323,
          -0.31970023201395725,
          0.12005133845309814,
          0.17969686983791613,
          0.52901186047526,
          -0.7531607093870277,
          -0.12733033282601258,
          -0.17401540312286976,
          0.280369117123207,
          -0.7563487722103226,
          0.5627109884717544,
          -0.02576184626381983,
          0.0984559884691538,
          0.242217261965485,
          0.13691116247709506,
          -0.06550210741192683,
          -0.21366423858806122,
          -0.5607003127335497,
          0.5140188630068739,
          0.855309626359841,
          0.43848725255200804,
          0.4649477952790404,
          -0.32894780881126445,
          0.1020696422948026,
          -0.22421849182156048,
          -0.20533523905708354,
          0.26327037529854286
        ],
        [
          0.07098288096440977,
          0.10650331033079656,
          0.4718340054623467,
          -0.04700798850765732,
          0.2030923559142613,
          0.23289412824937694,
          0.12432079108584307,
          -0.43144826948029713,
          0.22586651087142665,
          -0.40274500061029095,
          -0.43818233037030396,
          -0.6018135469209956,
          0.09607018350838932,
          -0.358504726060034,
          0.8738434299316873,
          0.01616974989086111,
          0.4446575754427904,
          0.4934184986982157,
          -0.33155241664922475,
          -0.04376299156666592,
          -0.22100562593710277,
          0.32533895194851326,
          -0.2987361731070639,
          0.27441355919369653,
          -0.17409126180983683,
          -0.11524159927691925,
          0.24466793197622305,
          -0.3415119844564814,
          -0.24989371702738608,
          -0.17258089978847344,
          0.004238599686121223,
          0.25524564997612403
        ],
        [
          0.07147681457918614,
          0.2238647050334594,
          -0.36778123042190136,
          -0.16554275749236208,
          -0.44953147298286944,
          0.47528560873706976,
          0.05381956061103648,
          0.11121952914592562,
          0.6745165867634532,
          -0.37382291972498355,
          -0.2043851514249759,
          0.017265025494723116,
          0.6389601132533796,
          0.567896475117986,
          -0.12109647442045705,
          -0.05958423137205516,
          -0.5914251870804935,
          0.012435352620602526,
          -0.1604597075204419,
          -0.48792126729785834,
          -0.2804826535954154,
          0.46005906541101055,
          -0.5178861734915565,
          -0.864412733429033,
          0.43541041933955726,
          -0.30580429549472776,
          0.3878997171098632,
          0.2010905589532555,
          -0.40474379351847684,
          -0.0894561956309735,
          -0.47574234617876565,
          -0.008221433704312688
        ],
        [
          -0.013602843443770928,
          0.07819271279120736,
          -0.33105172405320155,
          -0.102654391782827,
          -0.11613928677079466,
          0.2256096990028461,
          0.15088443694861825,
          0.09096719314974572,
          -0.12270742342709688,
          -0.12789738337116388,
          0.3020654526461673,
          0.03591741858889162,
          -0.1796442208668804,
          0.0170930970405814,
          0.36426962920417527,
          -0.8651830908081124,
          -0.2169500826651862,
          -0.4483387115630717,
          -0.45240615100626236,
          -0.06234958620996584,
          0.02180402784163073,
          -0.3333833825356756,
          -0.3190595037484941,
          0.49786168632350214,
          -0.484506201267838,
          0.01686027687284829,
          -0.604881790909678,
          -0.456364680330672,
          -0.24595076450442235,
          0.20890890877632762,
          -0.09972191267093017,
          0.22166486577666103
        ],
        [
          -0.11561585082004193,
          0.25118106540253804,
          -0.12923197791090665,
          0.4057556761668755,
          -0.07611631229143016,
          -0.4328738533327837,
          -0.5623774992008996,
          0.43261306619993706,
          0.22902639730887808,
          -0.2642602078114084,
          -0.6297997475906716,
          0.25554532956395043,
          0.701229130916665,
          0.1727871823151506,
          0.20730263931778892,
          -0.016478286311266233,
          0.589505412085988,
          -0.6095409967734,
          0.461365911316084,
          0.41747970970050213,
          0.10382486463284196,
          -0.3865961874925037,
          0.054564440298661594,
          -0.3595614310446838,
          -0.12313622465316748,
          -0.1135114906226565,
          -0.37051234111734027,
          0.34924405180952783,
          0.43087796406950535,
          0.05436929851519459,
          -0.14616594629106433,
          0.04272037250716115
        ],
        [
          -0.025666599276196116,
          -0.049388958027496814,
          0.22381197325165006,
          -0.11119971492817796,
          0.4148871792433761,
          -0.1997159690972143,
          -0.5609477019876655,
          -0.8100114129468956,
          0.13460647598410233,
          0.2502835121331946,
          0.4905751456318925,
          0.4353599021012056,
          -0.016566726160623775,
          0.29829312193979873,
          -0.34299390878859426,
          -0.008867235171674006,
          -0.3400868972573323,
          0.024626495882688268,
          -0.02847659341398579,
          -0.11996120975585689,
          0.47786652519050726,
          -0.23309032369580693,
          -0.12209719008670847,
          0.390356380443265,
          -0.41061595868174955,
          0.05330391587656051,
          -0.3623510264020201,
          -0.05910598211738214,
          -0.14039369589667103,
          0.09851049740695161,
          0.7047026255371294,
          -0.21489474080421408
        ],
        [
          -0.13150664035296689,
          -0.1254722375597827,
          -0.5473616886063017,
          0.04336918730660527,
          -0.33650846794332523,
          0.18857826570404815,
          -0.10314117957452763,
          -0.10695772513507382,
          -0.2793688227718584,
          -0.18640752423644755,
          -0.30033270240179305,
          -0.35940042919162285,
          0.20555888968539948,
          0.004432516509075479,
          -0.5840181192170207,
          -0.07502452506584958,
          0.5475154423668395,
          0.39971406230055223,
          -0.4098253289800962,
          0.16176439942557233,
          0.47934729104025525,
          0.45945414441675436,
          -0.18867955902478034,
          0.5997848006468919,
          -0.4264985266730748,
          -0.06734722496074681,
          -0.0863909402204175,
          -0.12741989841091933,
          -0.3500505089023132,
          0.501291424766598,
          0.23567799189344235,
          -0.09798036624022963
        ],
        [
          -0.3777891504018548,
          -0.436233601605434,
          -0.21547556530372064,
          0.22666207910605013,
          -0.31474167882729126,
          -0.11649598577493622,
          0.02477448587314475,
          0.10902546494023072,
          0.2756778690423261,
          -0.15862971213760527,
          -0.039204864678822074,
          -0.28490853287127205,
          -0.006060779639132939,
          0.5364012374147117,
          0.2958919727859163,
          0.13561624830613075,
          0.06894685803673896,
          -0.2615740945458649,
          0.3182458803279649,
          -0.5599603554226458,
          0.3184827265034915,
          0.017913466451519526,
          -0.24732790864521484,
          0.3670989899682219,
          -0.37958846805898866,
          0.6066661442807343,
          0.3849560522727266,
          0.087913227377152,
          -0.012364396873074456,
          -0.11241157571667493,
          -0.940573935378104,
          -0.009317823481971898
        ],
        [
          0.1809427014504073,
          -0.25512667536845884,
          0.13215348884409367,
          -0.04511059511514283,
          0.40059248956539273,
          -0.8831582020782283,
          0.22869572731938617,
          0.35618149813648486,
          -0.866652642587557,
          0.2973612827452962,
          0.2583617790146755,
          0.6787161609131916,
          -0.03851070558527324,
          0.5250390396910618,
          -0.10606872323733625,
          -0.25586037781326204,
          -0.24734081927527957,
          -0.49606701417774335,
          -0.02148866993997784,
          0.3210067306038888,
          -0.4395182626987093,
          0.35407757748910573,
          -0.004574149033633644,
          -0.3022826405762872,
          0.12150925375950737,
          -0.26733203584552556,
          -0.05392539190107337,
          -0.1970456721143543,
          -0.535291896193812,
          0.3203045388587729,
          0.14661243540943783,
          0.48358552115744674
        ],
        [
          -0.6310064271493011,
          -0.05548941653469594,
          0.18986966461468746,
          0.17904755605162986,
          0.01812456916476558,
          -0.05397578535287461,
          -0.02591510943013739,
          -0.009083639259245258,
          -0.7292181862474487,
          0.4885500963094932,
          -0.31234280331424796,
          0.4186457013856246,
          0.8939413270962947,
          0.4866303684080303,
          0.4841596373712671,
          -0.31383159212949757,
          -0.028803366008566252,
          0.14299020582752517,
          -0.14925779987108112,
          0.09478935019560879,
          -0.3530994375510381,
          -0.06215722385183624,
          -0.7494306087161559,
          0.4014631072220749,
          0.6143639221266446,
          -0.37653122075979806,
          -0.6950275599670458,
          0.10193011953171544,
          -0.07088288823765317,
          -0.055005866646992516,
          0.3059063375117054,
          0.14439774556897791
        ],
        [
          -0.1668179432849795,
          -0.49031133661738946,
          0.40984760319788643,
          -0.3677272222473586,
          -0.15033237725356585,
          -0.4882700343379171,
          0.36063381258946936,
          0.1956144976249765,
          0.2959808942693458,
          0.35702712738035375,
          -0.3808303229590179,
          -0.19033762496985385,
          -0.09348395723910864,
          0.6537926866263499,
          -0.12356499805525865,
          -0.2571324523811111,
          -0.6669405834594175,
          0.041209522514184777,
          -0.5228973374677954,
          -0.008980954632023783,
          -0.33579440215613876,
          -0.11222001326571968,
          -0.07123004868481742,
          -0.023970045508005466,
          0.027420817472294537,
          0.5814179472841412,
          0.08194087836173607,
          -0.08685985333362896,
          0.35269946518964596,
          0.1408605250397272,
          0.7114493350795751,
          -0.0646808814470985
        ],
        [
          -0.10882129982924241,
          -0.020842198918292087,
          -0.44377836637758755,
          0.3145742696438721,
          0.3337656699165883,
          -0.6839917542933307,
          0.5437361936344964,
          -0.3959550760731478,
          -0.14722105165483254,
          0.24384985259075073,
          0.21624809742422874,
          0.48834635843029944,
          -0.6358027862777537,
          0.39021648871839826,
          -0.11875840920979092,
          -0.36836605255186067,
          -0.38301071000239606,
          0.03709508568073606,
          -0.2543867097161138,
          0.08872663196905861,
          -0.13026738638906912,
          0.36653369543700165,
          0.6591372287373125,
          0.19797354986391194,
          0.052735695033261094,
          -0.274120743089115,
          0.3829605475254265,
          -0.04899529403219325,
          0.7323309211873446,
          -0.2187186484701864,
          -0.12762456472558606,
          -0.48934528542299
        ],
        [
          -0.6358237024348908,
          0.010678485093504192,
          -0.5354858087053569,
          -0.58708160630765,
          0.03774692423000296,
          -0.10729475856663098,
          -0.35740097315519853,
          -0.24915965317394054,
          0.07336381710798935,
          -0.6370561582267041,
          0.06806710219241377,
          0.02854788594959339,
          -0.0351870608680019,
          -0.516611530055815,
          0.02216516163913582,
          -0.8371140721122772,
          -0.47245373300956994,
          0.043071397711102716,
          0.2836598339804417,
          -0.26863055780663175,
          -0.34697216375925943,
          0.4284583274073574,
          0.1915093397062284,
          0.5353969685261191,
          -0.006423096700197984,
          -0.3331602881722295,
          -0.06853999736245121,
          0.0039165220779517895,
          0.21696674308084057,
          -0.2979327175908182,
          -0.2852965905543273,
          -0.2283289785943958
        ],
        [
          0.05299919957912295,
          0.24631376297690494,
          -0.3098361503175217,
          0.32252416750386625,
          -0.3699376082910735,
          -0.21104991531601414,
          0.5230779013713456,
          0.7619542946812097,
          0.23103427735841947,
          -0.47651483668379796,
          -0.4199598855916479,
          -0.2166292725911735,
          -0.01880319729614041,
          -0.21729867501134575,
          0.1006542627347739,
          -0.019635602020006696,
          -0.2799105738362982,
          -0.4627504417289936,
          -0.025589636691072316,
          0.4162680156595044,
          -0.3002366610824134,
          -0.044451465252796356,
          -0.07594891613763839,
          0.012778935855007719,
          -0.16440675883215625,
          -0.3565972920213764,
          -0.10843819305978548,
          0.26715521449082985,
          -0.08130507858125473,
          0.21010924203017722,
          -0.036847388798935565,
          -0.17348500756126511
        ],
        [
          -0.279736254772793,
          0.16462916889684093,
          -0.2327680907515501,
          -0.010806791440032186,
          0.026076865200268282,
          -0.12781289139897037,
          0.4086373240178563,
          -0.0019207586183928732,
          0.14109547004276105,
          -0.22539446218746434,
          0.4858509470377309,
          -0.015257926973712489,
          0.44938771262953175,
          0.2721892753607944,
          -0.5676012924126753,
          -0.23889195505107774,
          -0.5571902682893679,
          -0.12473505220687767,
          0.04299835062137652,
          0.0814471605131444,
          -0.06831853964678639,
          -0.38958479261945494,
          -0.8156172245912616,
          0.12372583928110091,
          -0.13860866444564487,
          0.47196695861120097,
          0.5921011295660532,
          -0.3384688740880467,
          -0.2977795025660011,
          -0.4674475679085616,
          0.7779816328653196,
          -0.17391753917777444
        ],
        [
          0.20095767864644729,
          0.033132433035313186,
          -0.9146843933136604,
          -0.10604576434581035,
          0.2500451136501048,
          0.010160689782460269,
          -0.35332937861743213,
          -0.044961129711884214,
          -0.03142443814232414,
          -0.2523340930044139,
          -0.512434941154909,
          -0.36795185784714884,
          -0.0847274137629333,
          -0.04091965302459972,
          0.6781129019231752,
          0.004824083383000307,
          0.5528758690477731,
          0.034716681186842645,
          0.5372517325607465,
          0.02615996649113946,
          -0.43393058102431353,
          -0.1909946306671282,
          0.0854509638372936,
          0.39094387891710347,
          -0.04463109777961796,
          -0.14159568303871672,
          0.4489902996062842,
          -0.27285079564023607,
          -0.7061543579142245,
          0.18552439777593882,
          -0.3602510225152892,
          -0.39056182352677254
        ]
      ],
      [
        [
          0.5641171001798913,
          0.035401982615478854,
          -0.2286116277598203,
          -0.3140740908656236,
          0.25104319505524325,
          0.40924773872091813,
          0.37140504160416066,
          0.4172909684312822,
          0.13878456480409962,
          -0.33676108665636295,
          0.4308484627147532,
          -0.666665452250943,
          -0.4826414550633356,
          -0.30448601618947646,
          0.057937594573571845,
          0.13670015583381784,
          -0.5871567589052886,
          0.09651706394120298,
          0.020024896290050845,
          0.19170891072329815,
          0.4053977661158253,
          0.2595635697474012,
          -0.0619721465175874,
          0.45504315054950956,
          0.318725415053878,
          -0.46502038343920815,
          -0.21139425431954662,
          0.3142410074830797,
          -0.36677364543187035,
          -0.046197275475472005,
          -0.08126377961820339,
          0.15934258331978704
        ],
        [
          -0.19962904894592706,
          -0.31391561789292244,
          -0.16191976923851223,
          0.297243254040545,
          0.08914430415016064,
          -0.11621357258813722,
          0.20732671968101174,
          0.08223494673324959,
          -0.08373729481069427,
          0.004467428566776079,
          -0.2960820298873459,
          -0.383628517466697,
          0.28690834115075625,
          -0.04530227764987891,
          -0.1447662947744071,
          -0.06713038055720127,
          -0.1560259343543902,
          0.05536324630005534,
          -0.050342838460508625,
          0.23024813755179466,
          -0.04269957421153037,
          -0.2844912797807714,
          -0.01214826571550604,
          0.43237555651886855,
          0.06972958018340747,
          0.24218520273660982,
          -0.15533927780854753,
          0.5887993488331141,
          -0.24898096247113946,
          0.3267930298850005,
          -0.06211118465640568,
          -0.4152938586410537
        ],
        [
          -0.04896284596848817,
          0.05023058331304297,
          0.5203749026311503,
          -0.11168464548087376,
          -0.34155914719716557,
          0.04165337200953733,
          -0.27065699509752766,
          0.44474357794703856,
          -0.834075248474925,
          0.4545943122633574,
          0.7223684422684309,
          0.34070786342166837,
          -0.024214227395463042,
          -0.19070556782267314,
          -0.35378409204816236,
          -0.27095955454500803,
          -0.11975278892315067,
          -0.1702756100159837,
          -0.03876624731443501,
          -0.3038904402495573,
          -0.15272376930491052,
          -0.20538359256582442,
          -0.5872391938772835,
          -0.5001549157472825,
          0.2303189515483315,
          -0.11618550500131095,
          0.5246902901731505,
          0.02813733451906879,
          0.2317393520256961,
          0.29937850015587797,
          0.5211030528763705,
          0.3688123330695368
        ],
        [
          0.3127332625356873,
          0.1975773833887862,
          0.5600702433891434,
          -0.21123480015515297,
          0.18148422143420692,
          0.3360226761946503,
          -0.10587639567141063,
          -0.8490240328392018,
          0.18785367208802603,
          0.2614699095918802,
          0.3505972796508719,
          0.25547544045463355,
          0.01710425468705012,
          -0.5068627302470943,
          0.21785582461670233,
          -0.10102376946783914,
          -0.4410858208319915,
          0.3004301164025156,
          0.23085921862702194,
          0.21042910819655233,
          -0.021764165818694274,
          -0.5723886513980582,
          0.03874449248895608,
          0.34663293624256847,
          0.013213457613542519,
          0.08858468101496628,
          -0.10589925512060717,
          0.03624716241946856,
          0.35729428492498666,
          0.25995163985023595,
          -0.49336626004173006,
          0.6256691037846832
        ],
        [
          0.32003650910517023,
          -0.48155873768961815,
          0.5396824557720149,
          -0.4247017465993808,
          0.23598874941537962,
          -0.15330216758676898,
          0.10636258766684878,
          -0.3185447613716227,
          -0.22107948330646476,
          -0.08748601327108255,
          -0.35524002986013453,
          -0.21529030140391847,
          -0.8294902639209526,
          -0.2433218788712878,
          0.06698174257844644,
          0.07630981454415417,
          0.22122877015836948,
          -0.06291120012641827,
          -0.2871649365265018,
          0.12149597628248321,
          0.17663444457928576,
          0.11646171737339998,
          0.024631518081297838,
          -0.010463636849989225,
          -0.2811898604348553,
          0.09379995615531445,
          0.08583926611894944,
          -0.18463604099111514,
          -0.12689720325311854,
          0.16571507552852713,
          0.44185470013078654,
          -0.5761354947825246
        ],
        [
          -0.235233983738489,
          0.31107453001505986,
          -0.12054969038297875,
          0.461360618954816,
          0.03249762346488674,
          -0.6040930737539772,
          -0.09857533763195385,
          -0.33746678947837994,
          -0.3141940801912239,
          -0.27444995377078174,
          -0.16633499042514963,
          0.26829678818467134,
          0.1906752831107405,
          -0.010810929334922576,
          0.08635866093681081,
          0.1602505749958341,
          0.5832228233658774,
          0.17031567905648276,
          -0.47344282680832034,
          0.8960273981839568,
          -0.4697795144519007,
          0.3840263761807773,
          0.13399494741406962,
          -0.07744174320266305,
          0.09384604544251589,
          -0.6238363177985216,
          -1.001459069703692,
          -0.6010962338862914,
          0.2650297882754493,
          -0.08016467968932665,
          -0.01334861793957616,
          -0.3021459870831803
        ],
        [
          0.283886384854517,
          -0.11470423561127324,
          -0.285655116992934,
          -0.1945615340533721,
          0.3026308017376641,
          0.15368795723911066,
          -0.2391068248072786,
          -0.05892257912565843,
          -0.18616176302669424,
          0.22603259030217226,
          -0.028832708858044166,
          -0.022155904854632244,
          -0.42542460294197815,
          0.6484176433097377,
          -0.23593102418250592,
          -0.2950686393901002,
          -0.2727321269273876,
          0.25981923638138155,
          0.17399865421935964,
          0.46834094062971954,
          -0.11065879853916763,
          -0.25333033043244313,
          0.13184316956049977,
          -0.054853833947522024,
          0.4240357084138708,
          -0.13884264554469086,
          -0.5751738486581465,
          0.3108116884750297,
          0.015123854233399384,
          0.09242862476181186,
          0.1158113128679036,
          -0.4169238143421906
        ],
        [
          -0.1632967595048328,
          -0.6567747377749348,
          -0.017880577567018784,
          0.29425326126181306,
          -0.5430753810289745,
          0.536268481186949,
          0.2111276141510595,
          -0.690311159283314,
          -0.6928730756688003,
          0.6138764207974551,
          0.1442055020790548,
          -0.8207929833433744,
          -0.16138462793132397,
          -0.3798157099553836,
          0.3358726939377429,
          0.4024854840109193,
          -0.3206362364679981,
          0.1880785229146394,
          0.4030072717490855,
          -1.2908609282747678,
          -0.05769313249788391,
          -0.1402030606045912,
          0.10646634271125843,
          0.4124993541997055,
          0.297995737142449,
          0.22652191711582023,
          0.6159867503212267,
          -0.5091590683985764,
          -0.15006048832212093,
          -0.0879950053175333,
          0.08500598326803854,
          0.040885187487421974
        ],
        [
          -0.5587142153585988,
          -0.08994629956356603,
          -0.8472903482931895,
          -0.3253371063446109,
          0.7351542667273346,
          -0.46364256912739565,
          -0.5063224735726708,
          0.3689226055774,
          0.027393635614446476,
          0.015663838092953027,
          -0.2384911429352987,
          -0.025240414044786143,
          -0.2708577400491812,
          0.029797980120797717,
          0.11663601320073737,
          -0.2394054517300279,
          0.31038169502257545,
          0.22491919776294925,
          0.41889302589078525,
          -0.18404201127230044,
          -0.02294298966677421,
          0.19343957287054755,
          0.4158021917616724,
          -0.3961222015127761,
          0.19788061019559822,
          0.0820175547964917,
          0.09893157218391017,
          -0.3916719323691516,
          -0.22276491843283333,
          -0.06120458194753865,
          0.22837924258497028,
          -0.5433058563718781
        ],
        [
          -0.3060130751329326,
          0.05685048429577913,
          0.03958433870377997,
          -0.4298762522809128,
          -0.06264186794970816,
          0.4541148418406743,
          0.08317477336051772,
          -0.21652149000495324,
          -0.11131300930933158,
          0.12861934269149666,
          0.33532855221575614,
          0.3991613108367479,
          -0.23001061307666543,
          -0.21156251097491363,
          -0.6483162161532201,
          -0.45853479477374165,
          0.25673015585555314,
          -0.37050734314462247,
          0.46770158598589534,
          0.22249661866142412,
          0.204280474796804,
          0.13675565660035396,
          0.15689260859714266,
          0.2823415298260488,
          -0.02065138962089043,
          -0.1992448437347491,
          -0.10880364814885732,
          -0.760475704612211,
          -0.16286631570317442,
          0.23846173711360982,
          -0.138543553150212,
          -0.22730572579726482
        ],
        [
          0.09977771409822489,
          -0.11629738971866868,
          -0.11083318863293218,
          -0.1896376353913824,
          -0.28723784206842456,
          -0.0060271689624701915,
          0.10549677176184427,
          -0.015498187530209623,
          -0.10739667922618587,
          0.265974452202123,
          0.3549926389855558,
          0.394248832010916,
          -0.26202508172929156,
          -0.3504145944924108,
          -0.41564776955156973,
          0.2325393338284726,
          -0.25082869057085183,
          0.073716788632787,
          -0.24993262542955183,
          0.23349377242411065,
          -0.06926558847977084,
          -0.6498249454885989,
          0.5370565588925634,
          0.21196432737768742,
          -0.3188626248396458,
          -0.09641669507451697,
          -0.2219462431656755,
          -0.3792135359641825,
          0.677179345853095,
          -0.4237995542357891,
          -0.05881774320164772,
          -0.29320561804673073
        ],
        [
          -0.788860269248369,
          0.24611992163407737,
          -0.08557131975718524,
          -0.11330417713595566,
          -0.0732452606570029,
          0.026054658550709788,
          0.46642018599900886,
          -0.44438542537703996,
          0.1363828913073701,
          -0.16881215634447105,
          0.4660411323430502,
          -0.7268472391296862,
          -0.2860046344405611,
          -0.8638160145306235,
          0.41620986486524225,
          0.2738009573326555,
          -0.38903402246106605,
          -0.6780648149366602,
          0.06777781736635156,
          0.07272096873734954,
          0.028905901296682874,
          0.1434398633142884,
          -0.1973583517594368,
          0.09417453610391956,
          -0.12514953712824273,
          -0.4040828289502379,
          -0.14277675070654175,
          0.27422386005306343,
          -0.11381809101964055,
          0.2895772041218181,
          0.14744191659517766,
          0.44046895494551475
        ],
        [
          -0.2827045982725957,
          -0.22969825281042142,
          0.2542815559497095,
          -0.313051016368179,
          0.4302518409427241,
          -0.14390373053712616,
          0.18693260619109736,
          -0.2127170606416256,
          -0.03212301401117232,
          0.17029513312242536,
          -0.16468011027534835,
          -0.12468023720404213,
          -0.21775535652210964,
          0.14620903686756603,
          -0.06452479441387593,
          0.4006209658922202,
          -0.30180115512743344,
          -0.7749476416171154,
          0.029399689747890572,
          -0.12439812007682503,
          0.24719249641701627,
          -0.08937226430694317,
          -0.08670335333929827,
          -0.4499575869383169,
          0.030744456272390697,
          0.005608795483952701,
          -0.2637784710868888,
          -0.22606334818862084,
          0.3304643008569084,
          0.08503339491694446,
          -0.6454500911668125,
          -0.4788368931672015
        ],
        [
          -0.20924064986616864,
          -0.23212790069508488,
          -0.3528301230618936,
          0.13535110337537823,
          -0.3013888022616125,
          0.023539646254498378,
          -0.5430623844017225,
          -0.32955570420148933,
          0.15433072750562626,
          0.06000578917699017,
          -0.26442738830528767,
          0.2093217921787671,
          0.3468071523461291,
          0.2763889675175635,
          -0.0630784669617616,
          0.33192777642088944,
          -0.5954348115372242,
          0.30456713828576104,
          0.2942146717980961,
          -0.08033090735130986,
          -0.4212202120998065,
          -0.44686611754046224,
          0.0027390998818045097,
          -0.21495330471567187,
          0.04457298318321764,
          -0.22214533011752843,
          -0.07515350291779618,
          -0.17600901786958403,
          -0.01487940309593332,
          -0.3831846568632079,
          0.06798237035987667,
          -0.3237971307962998
        ],
        [
          -0.35270102240311746,
          -0.003820414422406766,
          -0.11460567820578965,
          0.28242428181272655,
          0.2816899896174935,
          -0.05691958349382153,
          -0.11026279806920052,
          -0.26448501474908587,
          -0.16633086863624055,
          -0.2965383050767831,
          -0.03017081409898892,
          0.3389649195772001,
          0.6137157215984305,
          0.35028075138380516,
          -0.8837909405162959,
          0.2465197199212484,
          0.3304349734169493,
          0.22971048975986533,
          0.19154742694510243,
          0.17273364633033017,
          -0.041934077334560955,
          -0.5808723271889622,
          -0.9203968177771212,
          -0.1245240705900826,
          -0.40827111796509236,
          0.5959132600968641,
          -0.12432710329840495,
          0.031497342990616,
          -0.06712271862087721,
          0.14380704477721515,
          -0.33319437312467914,
          0.28238761288799047
        ],
        [
          -0.2259200435315859,
          -0.5202571876044089,
          0.6307501867335426,
          -0.5246870182610806,
          0.2276956395713054,
          0.18928151167119361,
          0.2682147102670777,
          0.20977014609324876,
          -0.7836138775815084,
          -0.053434613399382554,
          -0.16479375275392122,
          -0.3162482163338107,
          0.20743027183674168,
          -0.522900557626431,
          0.21434679297674564,
          -0.16875869182721004,
          -0.17872830168242476,
          -0.056587776719791066,
          0.41808220309697025,
          0.3469502218658263,
          0.2612365380482043,
          0.13507178283377055,
          0.06117902192296471,
          -0.7041865783905129,
          0.3746719686294383,
          0.22282793282904637,
          -0.444703244257884,
          -0.9422426926391915,
          -0.03984856520056025,
          -0.4504473315272317,
          -0.2715020640708267,
          0.22556306544455382
        ],
        [
          0.48615211072929915,
          -0.3714279166540582,
          -0.3867159188531437,
          0.21876632521039452,
          0.045338758620895515,
          -0.3249834888365798,
          0.2924727376202314,
          0.1696487129668623,
          -0.04054607124148035,
          -0.020624281487165417,
          0.3018492458037675,
          -0.010584416879371452,
          -0.3186582812179197,
          0.0345796678702851,
          -0.5828357331670412,
          0.0184604041585097,
          -0.7233420097697888,
          -0.5017393576910633,
          -0.5837300833320066,
          -0.13662562291479965,
          0.01683502205270598,
          0.11931725200125733,
          0.24070534856683878,
          0.03700482053954218,
          -0.21404847936340327,
          0.4872369644979444,
          -0.10315730034500818,
          0.37362193185864107,
          0.05146362637457322,
          0.05678116904810828,
          -0.10146959360637958,
          0.6403251589923584
        ],
        [
          0.20126784004512438,
          -0.051076357210873,
          -0.5814757811021889,
          0.14202550853265802,
          -0.33913328462734005,
          -0.2878134866665477,
          0.0990826148159021,
          -0.16626841646920118,
          0.12337216230620575,
          -0.2596341745469775,
          -0.22454341651430423,
          0.5782264230980916,
          -0.26188166824268605,
          0.0858067034626635,
          -0.034517661676427426,
          0.12919983126369017,
          -0.32299494645134097,
          -0.6022108789617012,
          0.4032884202507057,
          0.019906845674292704,
          -0.40815291798154363,
          -0.19405368311330531,
          0.27557399826877316,
          -0.050331262094662446,
          -0.24209915318591446,
          0.40497863433194975,
          -0.39900774759324625,
          -0.4076083933340939,
          -0.1999710250525735,
          -0.2256995107945958,
          -0.310850054698101,
          -0.10034482709416928
        ],
        [
          0.6210054395532564,
          0.8830891244276111,
          -0.025363608310582205,
          0.2865272105172855,
          -0.054990870558234844,
          -0.28762981754260586,
          0.13082445843915202,
          -0.26121316835744035,
          0.45781268732933417,
          -0.2249374692612106,
          -0.09500875159743594,
          -0.35618344372387006,
          0.23441311927670772,
          0.012111877887157582,
          -0.26668122046337045,
          0.29578314003421924,
          -0.44413238028463253,
          -0.1831404983094961,
          -0.26795466244301025,
          0.44769295217380406,
          0.5165565611429749,
          -0.24085781147616572,
          -0.06787570483318234,
          -0.12957101454110628,
          0.24000693004312718,
          -0.8479958612844393,
          0.28138686581970096,
          -0.3357590746269577,
          0.25927473140440427,
          -0.47636631758637976,
          0.027070540520183352,
          -0.07649162750503677
        ],
        [
          0.05233675665978265,
          -0.802966549939427,
          0.261228004968928,
          -0.05881267365720814,
          0.42229348618992185,
          0.241217098615421,
          0.05645285258697559,
          -0.05882864389020544,
          -0.1762719590328849,
          0.08889033634626109,
          0.5059256948977882,
          -0.3311070807823036,
          0.19363153927072402,
          0.36402307829408415,
          -0.39687441038147964,
          0.26176913336317453,
          -0.5712439028337608,
          0.6128083323582663,
          0.20808446523360977,
          -0.11126179477716766,
          -0.2378582132451888,
          0.11675315720838009,
          -0.8507088551435058,
          -0.37919989509707897,
          -0.3418383296707433,
          -0.28046746959442487,
          -0.18740608355524593,
          -0.19806210055464046,
          0.3110759446902152,
          0.026064756806684866,
          -0.5318804200612021,
          0.3163068737228196
        ],
        [
          -0.1493582984139688,
          -0.03442362070282681,
          -0.0988847337146509,
          0.0865616875451441,
          0.06584336987221875,
          0.02711911516244386,
          0.10209384703701915,
          0.11790764507097123,
          0.5325172392060438,
          -0.4247267601973799,
          -0.14535869222715742,
          -0.13852513218134255,
          -0.5512697947252219,
          0.34985813444533004,
          -0.35506916152235846,
          0.48269267863524673,
          0.08279723687364308,
          -0.29292251786571244,
          -0.4059020686684779,
          -0.5954532751713917,
          0.12113031742442022,
          0.37063149833585507,
          0.11998022798636451,
          -0.004232839939390183,
          -0.2560356345117505,
          0.3583190391714593,
          -0.520137493923295,
          0.14972736300977113,
          0.662663717168536,
          -0.22221308999377362,
          -0.5051296728618775,
          0.2907256677459436
        ],
        [
          0.35351508664269427,
          -0.31592387265771305,
          -0.17123521875395378,
          -0.4755928247746237,
          0.40304126401077206,
          -0.2872391649559664,
          0.13382616223558494,
          0.3394934434308106,
          -0.16110081165938664,
          0.3372748169116673,
          -0.04639844040429818,
          0.0830696250688338,
          -0.06575240436497508,
          -0.47766901441750914,
          -0.5901439460749823,
          0.12485155286138887,
          -0.3612918214561966,
          -0.3905149716459786,
          0.6411403774643661,
          0.3445451769902943,
          -0.32185999616017275,
          0.2995967783289711,
          -0.4190497240495057,
          -0.2462504751580769,
          0.14305808898947991,
          0.13102800001613762,
          0.2949601778862986,
          -0.09750136237088008,
          -0.5203229266930386,
          0.19582348254602744,
          0.1296182235731964,
          0.4730841721737692
        ],
        [
          0.11524371844541474,
          -0.27599585398516024,
          -0.06277400214892101,
          0.22910882218375228,
          0.3800900256868262,
          0.17183099333895446,
          -0.0749111994447408,
          -0.6234936556202981,
          -0.2710702925523949,
          -0.3777852748446708,
          0.08424087440992377,
          -0.4055858584075721,
          -0.589435345881683,
          -0.2856199205010885,
          -0.5094510291003939,
          0.3046015526250394,
          0.30717339029416224,
          0.05674790099533086,
          0.03432358957965751,
          0.6754727528715871,
          -0.14629270253438048,
          -0.044746948893838547,
          0.3525002972071043,
          -0.07123653228170958,
          0.03641319995017301,
