{
 "hiddenWeights": [
  [
   -0.48820766682073935,
   0.06885472999589215,
   0.46698975393464753,
   -0.15867573976745453,
   -0.23805459089994,
   -0.7102744947807252,
   -0.11692616516496084,
   -0.5242547775693217,
   0.2773876798084144,
   -0.3502647357860257,
   0.02386455273709574
  ],
  [
   -0.34106381779014316,
   -0.23709678211607504,
   1.1369491925898276,
   0.20563943294152195,
   -0.3066246990821958,
   -0.15741748334021913,
   0.24590805169494903,
   0.6315028440939251,
   -0.31380544605351995,
   0.504950418493876,
   -0.034863209979313976
  ],
  [
   0.5348743021017701,
   0.19273932238173713,
   -0.17188734922858862,
   -0.3853586727042863,
   -1.0261673099344142,
   0.08565458440099631,
   0.24447217414430245,
   -0.011525294022607062,
   0.05251771533083319,
   0.37812824470174655,
   0.44238122327519613
  ],
  [
   -0.11029977057943476,
   -0.06451548331833536,
   0.2984713303625399,
   0.7062785121246482,
   -0.23223342536057426,
   0.6401555513420852,
   -0.21131274609680678,
   0.4208334563979664,
   -0.32006083035516636,
   0.3521183168864839,
   -0.2660760755788242
  ],
  [
   0.36844520933841673,
   0.4085062841851097,
   0.5684723027371801,
   -0.07878966952159867,
   -0.01079269835802172,
   -0.00446317910704247,
   -0.6253281514975728,
   0.26444572896185853,
   0.039231241692176955,
   -0.23335335671677684,
   -0.6477205745234426
  ],
  [
   -0.31158201635957794,
   -0.19105488181996086,
   0.17173234743477447,
   0.2796806063053661,
   0.20494170292808236,
   -0.26860887125883615,
   1.1204477290406867,
   0.24279140358198606,
   -0.5486049912295169,
   0.18554941912467068,
   -0.3011045811241096
  ],
  [
   -0.8341027375705916,
   -0.09719912220300653,
   0.38413822499722206,
   0.7523727647720153,
   0.37111523461120755,
   0.13066720174732874,
   -0.5228486556602747,
   -0.23119711883471303,
   0.1638109523916768,
   0.09927895567048195,
   0.8047026602985337
  ],
  [
   -0.17406241659526062,
   0.2707143134694691,
   -0.16732209911265214,
   0.5538875331621751,
   0.06243150527526803,
   -0.2808269595116012,
   -0.020680724580989046,
   1.126795092593811,
   -0.3319420439546137,
   0.1726559468378179,
   0.3753699113201286
  ],
  [
   -0.42602842956210035,
   -0.3419996433282421,
   0.9536404281802286,
   0.016702411208902625,
   -0.09423272239382861,
   -0.08021995747987168,
   0.11688839485975333,
   -0.25789192482542717,
   0.20836171670116155,
   0.39302072690043743,
   0.216903702543361
  ],
  [
   -0.17943855681552162,
   -0.24323889477353314,
   -0.17421371824156673,
   0.10541460676437572,
   0.04744798690032544,
   0.29891490180198704,
   0.8523294992691792,
   -0.20249086875653838,
   0.6992232466010131,
   -1.1147761051336469,
   0.1796152913734701
  ],
  [
   0.05467268888898468,
   -0.6353767075130928,
   -0.34341852625120395,
   0.09250141237481561,
   0.5842407434072274,
   0.2532381936205947,
   -0.9209793208178236,
   -0.24559275263377633,
   -0.5943030919836292,
   -0.15172607449307196,
   -0.03938403886067737
  ],
  [
   -0.136369615260479,
   0.19120250263465305,
   0.07578944340537631,
   0.47653203073423905,
   -0.5690115699120706,
   0.28977762387661743,
   0.4342592785515199,
   0.5437706403797504,
   0.3486925885344139,
   -0.3550999383731227,
   -0.4368856827693563
  ],
  [
   0.3907759534980434,
   -0.044674412287138934,
   0.049895228499450134,
   -0.5297876963098512,
   -0.49205260802438966,
   0.1785399548011458,
   -0.12942944009223148,
   -0.5715266078514033,
   -0.3698608338644207,
   -0.760577151982397,
   0.3905240705357126
  ],
  [
   -0.4374081377078582,
   -0.13328592004085066,
   -1.0306347759330818,
   -0.19116634601290314,
   0.04874983075655633,
   -0.33670830604265184,
   0.04017370863614871,
   0.3600158989296029,
   -0.19842554153549888,
   0.32227791899759123,
   -0.11233400216665662
  ],
  [
   -0.24539850963806692,
   -0.41097017032428507,
   -0.1811314709688489,
   -0.20339044212941915,
   -0.19236231417174604,
   0.5679061854689816,
   -0.6469189577911924,
   -0.07051379805946949,
   -0.3445914445794651,
   -0.3786600281581082,
   0.5626364717686754
  ],
  [
   0.41432524172211926,
   0.3932529434418425,
   0.14895285613383033,
   0.4481185041792807,
   0.3918740464657764,
   -0.20182119391443654,
   -0.03985576420957216,
   0.1648194676588078,
   -0.28877953637803055,
   -0.16437235335668313,
   -0.24496219144188136
  ],
  [
   -0.6406191001740884,
   0.4468474225315214,
   0.0006636818550625208,
   -0.1734774421745952,
   0.0869236181328352,
   0.1105153679172552,
   -0.37254408306164255,
   0.16094735605281113,
   -0.15801308483790463,
   -0.28656161419763604,
   -0.5739026001842389
  ],
  [
   -0.45594204386452786,
   -0.10106695600713692,
   0.3292687270207906,
   0.4174151325795187,
   0.08174345806174924,
   -0.668989812475817,
   -0.07962227372516484,
   0.6435513363493929,
   -0.6400594365394674,
   0.09723392289908528,
   -0.32285430407178645
  ],
  [
   0.03179305681823595,
   0.20686989923801508,
   -0.6357387621400609,
   0.26961500974171737,
   -0.19204601815314087,
   0.05499084678622762,
   0.2980942837020897,
   0.4190477125536456,
   -0.15716470586771591,
   0.21030974575352432,
   0.2993628889883577
  ],
  [
   0.059028824134360676,
   -0.6182564767635272,
   -0.10576763038634474,
   0.08292189443320495,
   0.27026758809846607,
   -0.07021520618204109,
   0.7373316820285547,
   0.35186540351715323,
   -0.42946973992951465,
   -0.37659513140945694,
   0.14040092268822466
  ],
  [
   0.5939208510867651,
   -0.21791319636074333,
   0.4272268629867736,
   -0.2987178064219763,
   -0.4882100316168847,
   0.12638321113914155,
   -0.24440716730489448,
   -0.33045436053970273,
   -0.54725163717927,
   0.5842331512393851,
   -0.47739889600314256
  ],
  [
   0.44794506982703697,
   0.2368410047288062,
   -0.5080117119574833,
   0.13672425349131337,
   -0.6704493560663655,
   0.3526416792473459,
   -0.34082880016604833,
   -0.5290338400961285,
   0.6501446616368248,
   -0.5561199847661754,
   -0.2268368561710406
  ],
  [
   -0.0428553647087908,
   0.5558862886614211,
   -0.31437358256056536,
   0.24248896905425632,
   -0.7821950588934696,
   -0.02052906821538634,
   -0.26326409644473125,
   -0.24063035892378715,
   -0.5786384782184413,
   0.6044024840115384,
   -0.4892652099069765
  ],
  [
   0.82051422552906,
   0.151884609539708,
   -0.8883887547658761,
   0.23518501344107523,
   1.1505466104550333,
   0.05436717401332953,
   -0.26806723717856457,
   -0.386990300097596,
   0.09077196767074762,
   -0.052520399834091076,
   0.7019106882786202
  ],
  [
   1.083587052489452,
   0.19557703259801018,
   -0.620631560046501,
   -0.5093082263208748,
   0.17034091163974618,
   -0.30581120268115225,
   0.2869151991872378,
   -0.44820671356436925,
   0.7269370282790616,
   -0.5439415010103827,
   -0.051853287512741576
  ],
  [
   0.1661045099283616,
   0.30684360172549885,
   0.19492607893695738,
   0.4216040324737441,
   0.09695683724138515,
   -0.0013273086345695656,
   -0.010801233853269261,
   0.5450895504718609,
   -0.3050090849003409,
   0.21653961235718494,
   0.3033212008447767
  ],
  [
   -0.335115368249142,
   0.11000831017886044,
   0.14846881900599282,
   -0.20741099416628245,
   -0.0646862146040164,
   -0.22502589443331747,
   -0.3642071383384301,
   0.8554125118551944,
   -0.8060836998295522,
   -0.04308239509550146,
   0.08334120099485817
  ],
  [
   -0.3861598592141492,
   0.4725726539632211,
   0.08242483843382918,
   0.6484625087396942,
   -0.7009646493171019,
   0.07042204077532484,
   -0.15498505598564613,
   -0.287773853730763,
   -0.7193287953485646,
   -0.018360288745071087,
   -0.3209090443792339
  ],
  [
   0.0824345950328939,
   0.6216395885647686,
   0.255679239420512,
   0.3177920514471001,
   0.05265843561752995,
   -1.2332085094364866,
   -0.018531144487726765,
   0.06258458835536418,
   0.26915287387346987,
   0.21201553679514915,
   0.5480935291189087
  ],
  [
   -0.5673628248763696,
   0.4108927987979346,
   0.08570098755240962,
   -0.427503656924396,
   0.5268673462105675,
   0.20096337571755432,
   -0.2599524806075386,
   -0.21644910940544648,
   -0.33765377311877737,
   1.136934265912437,
   -0.3089117206943675
  ],
  [
   -1.0564695687032752,
   0.5330502948043866,
   -0.8335663876570586,
   0.37818778598408803,
   0.6190140390691862,
   -0.14705647626916185,
   -0.5688183032146358,
   0.03671422357197472,
   0.4209451011038164,
   -0.21368637141457075,
   0.1117407996041853
  ],
  [
   0.4749325791041724,
   -0.3017391887614811,
   -0.14545585883955947,
   -0.41707309794756847,
   0.05898032906189519,
   -0.11277170659564233,
   0.7918146647275658,
   -0.2123095437982804,
   0.2725118100815792,
   -0.02731823930066602,
   -0.9206355679526724
  ]
 ],
 "outputWeights": [
  [
   -0.010087392398007756,
   0.3919451049639089,
   0.2611854665657367,
   0.3826641153451519,
   0.1126607514366372,
   -0.009465058149055029,
   0.15678723781356768,
   0.018062946012882514,
   -0.11213302006352512,
   -0.034122947083359424,
   -0.02967139589134553,
   -0.26809701653114554,
   -0.2834888179060573,
   0.2749382411700297,
   -0.2683081625968793,
   -0.20977764094362122,
   0.215509769226832,
   0.05556825163368665,
   0.26257760722721696,
   -0.04551499272406068,
   0.20544797280050975,
   -0.0298909604157149,
   -0.14919189132973745,
   0.36985862029535244,
   -0.137860239555991,
   -0.7494755540210057,
   -0.283016899717999,
   -0.2564401649521594,
   0.13693716541520104,
   -0.39632785661303377,
   -0.3863374048386031,
   0.2832062526514366
  ]
 ],
 "hiddenBiases": [
  0.0010312566316701118,
  0.20068851210319388,
  -0.0948214946899472,
  0.11699613062839015,
  0.057649461494696234,
  -0.042538267465095356,
  0.07452850593766606,
  -0.0020404692330190815,
  0.02367068281033713,
  0.034228810131335545,
  0,
  0.07362814103731836,
  -0.07665853202300064,
  -0.00960688775251929,
  -0.03095620906048301,
  -0.07528089423344851,
  -0.011881458915296841,
  -0.004306902102570181,
  0.04381260355837426,
  -0.0011074347848434897,
  0.03747698263183277,
  -0.005806105927041875,
  0.03549547546158942,
  0.14542791759173646,
  0.036067142786939156,
  -0.17117968972862566,
  -0.1355960151902838,
  0,
  0.20619243670088433,
  0.04504782550353569,
  -0.16099150616374724,
  -0.17682151523877218
 ],
 "outputBiases": [
  0.21209586201716057
 ],
 "inputMins": [
  4.6,
  0.12,
  0,
  0.9,
  0.012,
  1,
  6,
  0.9900700000000001,
  2.74,
  0.33,
  8.4
 ],
 "inputMaxs": [
  15.9,
  1.58,
  1,
  15.5,
  0.611,
  72,
  289,
  1.00369,
  4.01,
  2,
  14.9
 ],
 "targetMins": [
  3
 ],
 "targetMaxs": [
  8
 ]
}